tree
version=v3
num_class=1
num_tree_per_iteration=1
label_index=0
max_feature_idx=17
objective=regression
feature_names=Open Close High Low SecuritiesCode money_flow average5 average10 average20 average60 average120 bollDown bollUp NumberUp_12 MAEVolume_12 STDVolume_10 STDVolume_20 Willness
feature_infos=[17:81000] [16:172200] [18:81780] [16:80330] [1301:8393] [63000:206114900000] [16.600000000000001:81000] [15.9:81000] [16.699999999999999:81000] [17.966667000000001:81000] [19.550000000000001:81000] [-14350.874:70063.710000000006] [19.167045999999999:109180.21000000001] [0:11] [125:218626260] [42.163704000000003:114992610] [111.8034:138527200] [-246.66666666666663:inf]
tree_sizes=3012 2957 3000 2984 2994 2993 3020 3042 2993 2998 2982 3030 3024 3059 3017 3024 2961 2992 3000 3031 2930 3062 3018 3060 3073 3010 2970 3033 2989 2936 3014 3038 2952 2931 3016 2937 2972 3066 2989 2971 2987 2935 2994 2945 2970 2932 3023 2961 3042 3051 3046 3020 2962 2934 3027 2963 2989

Tree=0
num_leaves=31
num_cat=0
split_feature=1 10 6 11 10 13 17 12 17 3 13 11 7 7 5 3 15 10 15 1 10 6 0 12 13 11 10 1 5 17
split_gain=0.142101 0.0691582 0.0803674 0.041883 0.104252 0.0422633 0.0511143 0.0321382 0.0560095 0.0482273 0.0531151 0.0384374 0.0374867 0.0305503 0.0543463 0.0297373 0.029311 0.0278616 0.0247805 0.0234166 0.0470803 0.0654215 0.0324492 0.0276768 0.0551248 0.0410963 0.0680119 0.0427419 0.0237047 0.0234041
threshold=1052.1500000000003 1153.3958500000001 883.50000000000011 556.1632350000001 731.77083000000005 3.5000000000000004 0.36200437719027351 1254.1243000000002 -1.0000000180025095e-35 698.35000000000014 5.5000000000000009 579.93085000000008 798.1500000000002 818.85000000000002 1100312500.0000002 637.10000000000014 1564432.55 934.86457000000007 729183.84500000009 2243.2500000000005 2410.3875000000003 2047.3000000000004 2128.5000000000005 2711.7611500000007 3.5000000000000004 1402.3146500000003 2767.1124500000005 1619.2500000000002 3037565400.0000005 0.28467413050169282
decision_type=2 2 2 10 2 2 10 10 10 2 2 10 2 2 2 2 10 2 10 2 2 2 2 10 2 10 2 2 2 10
left_child=1 3 7 4 -1 6 17 16 13 10 -10 -12 -11 14 -9 -7 -3 -6 -15 20 -2 22 23 -22 -25 -26 -27 -28 -29 -14
right_child=19 2 -4 -5 5 15 -8 8 9 12 11 -13 29 18 -16 -17 -18 -19 -20 -21 21 -23 -24 24 25 26 27 28 -30 -31
leaf_value=0.00051270391027674936 0.00044652275935148147 0.0009274145953630168 0.00056265636615899172 0.00046409797551701868 0.0029734224195537501 0.0010512659573675327 0.00091714607490443582 0.00089537790543371101 0.0062282128512919114 -0.0014109343593556474 0.0046331862268515671 -0.0013480395450988698 0.0013505789300133435 0.00022364070372900139 0.0065361351168659858 0.0004646469921722745 -0.00090228522228519639 0.0070268160977612331 -0.0030443557389100641 0.00042900830814163524 0.00069730368267530596 0.00049942453232072965 0.0026193828312354676 0.0045966525610805671 0.00050598483630330386 0.0005523884001050807 0.0067258423278418059 0.0019371499250755624 0.0043563643584904601 0.0030183837427791172
leaf_weight=160094 617544 3220 81518 296527 43 3865 83 117 57 34 21 22 195 165 20 1113 90 28 27 708709 6158 56163 98 46 649 319 23 293 47 148
leaf_count=160094 617544 3220 81518 296527 43 3865 83 117 57 34 21 22 195 165 20 1113 90 28 27 708709 6158 56163 98 46 649 319 23 293 47 148
internal_value=0.000458729 0.000501886 0.000584425 0.000486579 0.000526926 0.000970582 0.00260215 0.00101555 0.00158182 0.00227413 0.00422648 0.00157302 0.00175627 0.00057807 0.00171885 0.000920107 0.000877664 0.00457194 -0.000235921 0.000441734 0.000454972 0.000536757 0.000811446 0.000787932 0.00119322 0.0010756 0.00161765 0.0025538 0.00227157 0.00207021
internal_weight=0 547387 85634 461753 165226 5132 154 4116 806 477 100 43 377 329 137 4978 3310 71 192 1.39005e+06 681340 63796 7633 7535 1377 1331 682 363 340 343
internal_count=1937436 547387 85634 461753 165226 5132 154 4116 806 477 100 43 377 329 137 4978 3310 71 192 1390049 681340 63796 7633 7535 1377 1331 682 363 340 343
is_linear=0
shrinkage=1


Tree=1
num_leaves=31
num_cat=0
split_feature=1 10 3 13 3 8 11 10 13 17 3 10 17 8 1 7 1 9 10 17 12 0 4 15 1 3 5 4 5 5
split_gain=0.115102 0.0563009 0.0667011 0.0383032 0.0424809 0.0451374 0.0347998 0.09971 0.0419018 0.0747521 0.0815486 0.0419031 0.0330877 0.0447132 0.0369819 0.0319416 0.0301765 0.0339253 0.0291249 0.0285496 0.0324766 0.0654828 0.0280735 0.02695 0.0269448 0.0261659 0.0404568 0.0326433 0.0266856 0.0364762
threshold=1052.1500000000003 1128.9417000000001 800.15000000000009 4.5000000000000009 625.05000000000007 719.92500000000007 532.37807500000008 653.82915000000014 4.5000000000000009 0.46686195779457812 457.30000000000007 755.47082000000012 0.18646556658951244 993.82500000000016 843.15000000000009 851.05000000000007 465.60000000000008 798.8166500000001 1343.0750500000001 0.53758824618253997 944.37796500000013 729.35000000000014 7517.0000000000009 1286748.4000000001 126.35000000000001 577.10000000000014 398395780.00000006 6994.5000000000009 43119466.000000007 126542415.00000001
decision_type=2 2 2 2 2 2 10 2 2 10 2 2 10 2 2 2 2 2 2 10 10 2 2 10 2 2 2 2 2 2
left_child=1 6 3 4 5 -3 7 -1 9 10 16 -12 15 23 18 24 17 -9 -15 -10 -21 -22 -6 -14 -5 26 28 -28 -13 -30
right_child=-2 2 -4 12 22 -7 -8 8 19 -11 11 25 13 14 -16 -17 -18 -19 -20 20 21 -23 -24 -25 -26 -27 27 -29 29 -31
leaf_value=4.5033995218324181e-05 -1.5295351715893018e-05 0.0012523159257046158 9.6057358655358388e-05 0.0029746992207947188 0.00082166952541949884 0.0067409466919970927 5.253860699181119e-06 0.0035884837856391427 4.9741397560718582e-05 0.00025801844930862226 -0.00026084109521570044 0.0044067687963923585 0.00057831817669308375 0.0041044287336990245 -0.0016772714257240297 -0.0013290133802210684 0.00037678268383301445 0.0075398932344147148 0.00094656149752984713 0.00043339342145314123 0.0073607052629813558 0.0010080958259032044 0.0039510145002315126 -0.0014163879980989011 1.3794942124150111e-05 -1.0388370137661695e-05 0.0077891519131219906 0.0023359724808306921 -0.0014002619632065478 0.0027454171774231578
leaf_weight=143493 1390049 31 87137 34 381 29 306328 97 2482 631 141 26 1472 80 20 183 21 28 46 4020 20 86 31 71 320 50 23 21 41 44
leaf_count=143493 1390049 31 87137 34 381 29 306328 97 2482 631 141 26 1472 80 20 183 21 28 46 4020 20 86 31 71 320 50 23 21 41 44
internal_value=0 3.88414e-05 0.00011122 0.000600913 0.00141917 0.00390515 2.46308e-05 6.38818e-05 0.000413711 0.000978445 0.00190241 0.0010661 0.000427411 0.000644803 0.00231747 -0.000256341 0.00388433 0.0044736 0.00295156 0.000317738 0.000478951 0.0022067 0.00105713 0.000486533 0.000298176 0.00197878 0.00262045 0.0051865 0.00160328 0.000745737
internal_weight=0 547387 89835 2698 472 60 457552 151224 7731 1123 492 346 2226 1689 146 537 146 125 126 6608 4126 106 412 1543 354 205 155 44 111 85
internal_count=1937436 547387 89835 2698 472 60 457552 151224 7731 1123 492 346 2226 1689 146 537 146 125 126 6608 4126 106 412 1543 354 205 155 44 111 85
is_linear=0
shrinkage=0.1


Tree=2
num_leaves=31
num_cat=0
split_feature=1 10 6 11 10 13 17 2 10 14 17 14 13 3 11 5 1 17 12 3 8 12 8 4 4 11 17 5 17 11
split_gain=0.0932323 0.0460948 0.0590158 0.0277012 0.0773952 0.0497053 0.0723508 0.060843 0.0427056 0.0314609 0.0245511 0.0306879 0.0223314 0.0386502 0.0248592 0.0296624 0.0220947 0.0236996 0.0219312 0.0465058 0.020935 0.0358433 0.0322228 0.0283329 0.0414609 0.0265696 0.0255564 0.0200903 0.0284441 0.0283759
threshold=1052.1500000000003 1164.8206500000003 883.50000000000011 518.99840000000006 676.89165000000014 4.5000000000000009 0.25890329755165065 417.50000000000006 861.06875000000014 601475.00000000012 0.53758824618253997 63579.166000000005 5.5000000000000009 590.15000000000009 438.09311500000007 243795665.00000003 13012.500000000002 -0.51540320406126328 944.37796500000013 719.05000000000007 993.82500000000016 1859.7501500000001 1114.2250000000001 7215.5000000000009 6366.5000000000009 756.3688850000002 0.25890329755165065 544514800.00000012 1.5056306591929391 376.5976500000001
decision_type=2 2 2 10 2 2 10 2 2 2 10 2 2 2 10 2 2 10 10 2 2 10 2 2 2 10 10 2 10 10
left_child=1 3 12 4 -1 6 7 -6 -9 -10 11 -7 13 14 -3 -16 -2 -18 27 -20 -15 22 23 24 25 26 -22 29 -29 -12
right_child=16 2 -4 -5 5 10 -8 8 9 -11 18 -13 -14 20 15 -17 17 -19 19 -21 21 -23 -24 -25 -26 -27 -28 28 -30 -31
leaf_value=4.4738528574047979e-05 -1.1218939137843855e-05 0.0011389954870618467 8.4674084463294712e-05 6.2067141603986721e-06 0.0079119151754474103 0.0015957413154079035 0.00066785000911554154 0.0010364227846973032 0.0025059597422960938 0.007588280832749747 0.0018338319768568185 -6.9427542160962471e-05 0.00027990930197697815 0.00046634109489053613 0.0017644994470867375 0.0069627364247065518 -0.00056579359931143759 -6.7294334832369875e-05 0.0063231788107077601 0.00067826452604667457 0.001501601076502677 -0.000191433910120245 0.0048577295761788267 0.0042980470108769592 -0.0022034218156477439 -0.00046052844731038381 0.0053334482380055954 0.0003316685008317583 -0.0013698225122883575 0.00048652478539048025
leaf_weight=138696 1335547 45 79959 319565 22 118 615 96 29 21 171 1783 2261 1240 21 23 971 53531 20 54 46 97 36 31 32 33 28 393 131 1821
leaf_count=138696 1335547 45 79959 319565 22 118 615 96 29 21 171 1783 2261 1240 21 23 971 53531 20 54 46 97 36 31 32 33 28 393 131 1821
internal_value=0 3.49573e-05 0.000103185 2.2615e-05 5.9036e-05 0.000435032 0.00117026 0.00300944 0.00227071 0.00464053 0.000306846 3.39338e-05 0.000483391 0.000765298 0.0027916 0.00448176 -1.37658e-05 -7.61755e-05 0.000507157 0.00220392 0.000648422 0.00139357 0.00213991 0.00156437 0.0009547 0.00189918 0.00295149 0.000457252 -9.37043e-05 0.000602182
internal_weight=0 547387 83852 463535 143970 5274 783 168 146 50 4491 1901 3893 1632 89 44 1.39005e+06 54502 2590 74 1543 303 206 170 139 107 74 2516 524 1992
internal_count=1937436 547387 83852 463535 143970 5274 783 168 146 50 4491 1901 3893 1632 89 44 1390049 54502 2590 74 1543 303 206 170 139 107 74 2516 524 1992
is_linear=0
shrinkage=0.1


Tree=3
num_leaves=31
num_cat=0
split_feature=1 10 11 13 12 12 10 3 17 11 10 2 17 2 13 7 17 6 5 0 11 6 16 1 3 12 4 10 9 0
split_gain=0.0767362 0.0426796 0.0946035 0.0348715 0.089742 0.0816069 0.0809965 0.0456846 0.0361997 0.0309933 0.0865884 0.0389454 0.0309689 0.0294019 0.0289882 0.0299785 0.0506845 0.0288052 0.0471124 0.0279495 0.0273318 0.0331603 0.0267846 0.0312008 0.0266167 0.0402886 0.032379 0.0256187 0.0249817 0.024846
threshold=1250.2500000000002 1295.5792000000004 1082.8660000000002 4.5000000000000009 1471.9333500000002 2273.6021000000005 1611.3916500000003 957.05000000000007 0.37598298948945502 693.26067000000012 861.06875000000014 606.25000000000011 0.13294566661412713 1257.5000000000002 4.5000000000000009 688.05000000000007 0.40376682826303617 616.70000000000016 845219180.00000012 585.35000000000014 745.91617500000018 1116.7 722373.72500000009 495.15000000000003 577.10000000000014 1000.2211500000001 6236.0000000000009 1378.7625000000003 1535.9083000000003 622.50000000000011
decision_type=2 2 10 2 10 10 2 2 10 10 2 2 10 2 2 2 10 2 2 2 10 2 10 2 2 10 2 2 2 2
left_child=1 9 3 4 -3 6 27 12 17 10 -1 14 -8 20 15 16 -12 18 -5 -13 -9 -22 23 -16 25 26 -21 -6 -10 -19
right_child=-2 2 -4 8 5 -7 7 13 28 -11 11 19 -14 -15 22 -17 -18 29 -20 24 21 -23 -24 -25 -26 -27 -28 -29 -30 -31
leaf_value=3.0542924547312989e-05 -1.4653624053423827e-05 0.00018755877775314872 3.9319406740907428e-05 0.00032010257076335087 -0.0007819569785602117 0.00025478708153503905 0.0031824085063514454 -0.0010594116497403857 0.00027872988621389081 -4.8923194242070037e-06 0.0043498443785210837 -0.0017208336130715908 0.0079034510136504355 0.0056739603056861418 0.0020042309538030583 -0.0011663696534621219 0.00063646680769392436 -0.0027002092943910292 0.0051939250539622403 0.002470738151720886 0.0047399678539906467 0.0016666705652684099 -0.00017117709816691628 0.00047682006731094401 0.00026803880715891795 0.0048492395057110121 -0.0026852082804821077 0.0014810766834114919 0.00076162030792236758 1.1052248665321109e-05
leaf_weight=250719 1256324 1829 86240 68 61 399 24 22 10505 314257 80 70 33 29 218 24 68 34 28 29 53 104 253 346 8355 32 21 278 1193 5740
leaf_count=250719 1256324 1829 86240 68 61 399 24 22 10505 314257 80 70 33 29 218 24 68 34 28 29 53 104 253 346 8355 32 21 278 1193 5740
internal_value=0 2.70289e-05 8.51288e-05 0.000278786 0.000604423 0.00136459 0.00209772 0.00340748 0.000226292 1.62437e-05 4.17693e-05 0.000338175 0.00591564 0.00272014 0.000932122 0.00211206 0.0026437 2.36507e-05 0.00174163 0.000269125 0.00224159 0.00270415 0.000683714 0.0010672 0.000285635 0.00207851 0.000305241 0.00107386 0.000327977 -4.91292e-06
internal_weight=0 681112 106640 20400 2832 1003 604 265 17568 574472 260215 9496 57 208 989 172 148 5870 96 8507 179 157 817 564 8437 82 50 339 11698 5774
internal_count=1937436 681112 106640 20400 2832 1003 604 265 17568 574472 260215 9496 57 208 989 172 148 5870 96 8507 179 157 817 564 8437 82 50 339 11698 5774
is_linear=0
shrinkage=0.1


Tree=4
num_leaves=31
num_cat=0
split_feature=1 10 3 0 1 13 5 1 2 6 5 2 5 3 9 17 0 6 13 14 1 4 11 10 2 16 0 3 0 2
split_gain=0.0633007 0.029622 0.0844859 0.0491527 0.036902 0.0358507 0.044156 0.047072 0.0336887 0.0328957 0.0315082 0.0313968 0.0297321 0.0646134 0.0266967 0.0260333 0.0238753 0.0218961 0.0214894 0.0202145 0.0199054 0.0185169 0.0182623 0.0522004 0.0349799 0.0391806 0.0345914 0.0385725 0.0265221 0.0352115
threshold=1710.2500000000002 1789.9666500000003 1223.5000000000002 1316.5000000000002 872.10000000000014 4.5000000000000009 1726503050.0000002 1203.2500000000002 1257.5000000000002 579.10000000000014 99498350.000000015 1282.5000000000002 389028860.00000006 957.05000000000007 1779.8750000000002 0.69022304076651919 1194.5000000000002 1334.7 2.5000000000000004 780275.00000000012 1203.2500000000002 7103.5000000000009 693.26067000000012 861.06875000000014 606.25000000000011 722373.72500000009 585.35000000000014 577.10000000000014 2067.5000000000005 1706.5000000000002
decision_type=2 2 2 2 2 2 2 2 2 2 2 2 2 2 2 10 2 2 2 2 2 2 10 2 2 10 2 2 2 2
left_child=1 10 3 4 9 6 8 -8 -6 -3 -1 12 -7 14 -14 19 -13 -10 -12 20 -15 22 23 -20 25 -25 -26 -28 29 -29
right_child=-2 2 -4 -5 5 11 7 -9 17 -11 18 16 13 15 -16 -17 -18 -19 21 -21 -22 -23 -24 24 26 -27 27 28 -30 -31
leaf_value=3.1436717608568815e-05 -1.7935732197127775e-05 0.0036377480081110089 4.8334781217079418e-05 0.0041061379638425008 0.00073585918949766295 0.00040428873222287222 0.0081570516235660775 0.001296148607507348 0.0041012769744715148 0.0001272596212931494 -0.00025068950199320027 -0.0036244279132612669 0.002678457426879069 0.0019744163210139629 0.007674015527591109 0.0022101134469721729 -0.00025006383797714868 0.00044594642898553743 2.4776200475595676e-05 -6.6676252010347943e-05 -0.00050061874221577201 -4.2256557115355168e-05 -8.2752010907158796e-06 0.001503804358787217 -0.0022999219433843809 -4.8202690815408143e-05 0.0025992609237852904 0.00023258431605374972 -0.0033988977927947419 0.004336125527749703
leaf_weight=420592 976238 27 103685 37 294 1265 20 20 57 2351 3589 24 23 133 20 128 166 23 87090 221 43 101613 233971 484 53 245 70 4913 20 21
leaf_count=420592 976238 27 103685 37 294 1265 20 20 57 2351 3589 24 23 133 20 128 166 23 87090 221 43 101613 233971 484 53 245 70 4913 20 21
internal_value=0 1.82164e-05 6.74204e-05 0.000475271 0.00044737 0.000720837 0.00156869 0.0047266 0.00123094 0.000167118 1.19531e-05 0.000547327 0.000674163 0.0012752 0.00500197 0.000969962 -0.000676299 0.00305037 -7.01297e-06 0.000570114 0.00136972 -4.9719e-06 6.61876e-06 4.41312e-05 0.000334456 0.000982211 0.000241446 0.000268256 0.000235318 0.00025005
internal_weight=0 961198 108537 4852 4815 2437 414 40 374 2378 852661 2023 1833 568 43 525 190 80 432069 397 176 428480 326867 92896 5806 729 5077 5024 4954 4934
internal_count=1937436 961198 108537 4852 4815 2437 414 40 374 2378 852661 2023 1833 568 43 525 190 80 432069 397 176 428480 326867 92896 5806 729 5077 5024 4954 4934
is_linear=0
shrinkage=0.1


Tree=5
num_leaves=31
num_cat=0
split_feature=1 10 6 7 3 12 8 2 11 10 13 17 7 13 5 5 16 11 17 5 11 4 17 14 1 8 1 11 9 11
split_gain=0.0538509 0.0308404 0.0423292 0.0219006 0.0284514 0.0263091 0.0350429 0.0226213 0.0209077 0.0536522 0.0303103 0.0465412 0.045293 0.026744 0.0249689 0.0362076 0.0257789 0.0225952 0.0210057 0.0207819 0.0287203 0.0202157 0.0199917 0.0252155 0.0197292 0.0252495 0.0253783 0.0249216 0.0189694 0.0282653
threshold=1052.1500000000003 1105.1676500000001 777.6400000000001 730.74500000000012 370.50000000000006 1999.9802000000002 993.82500000000016 762.25000000000011 518.99840000000006 676.89165000000014 4.5000000000000009 0.42742578587230545 494.15000000000003 3.5000000000000004 437655500.00000006 293062100.00000006 802490.30000000016 452.65359500000005 0.3898409968115456 719782100.00000012 481.83848500000005 8215.5000000000018 0.53758824618253997 63579.166000000005 750.15000000000009 892.22500000000014 813.15000000000009 621.07225000000005 892.07497500000011 481.83848500000005
decision_type=2 2 2 2 2 10 2 2 10 2 2 10 2 2 2 2 10 10 8 2 10 2 10 2 2 2 2 10 2 10
left_child=1 8 3 4 -3 6 24 -8 9 -1 11 12 -11 19 15 17 -16 -15 -10 20 -14 -2 23 -12 27 26 -26 -5 -24 -30
right_child=21 2 -4 5 -6 -7 7 -9 18 10 22 -13 13 14 16 -17 -18 -19 -20 -21 -22 -23 28 -25 25 -27 -28 -29 29 -31
leaf_value=3.5354966949027115e-05 -8.2287258559200505e-06 0.0037016599560561387 6.9289319827390517e-05 0.0026673408498351305 0.00013967888702097754 -0.00099496863280924461 0.0017020323051006665 0.0055544971190910376 -0.00012468722246840598 0.0048457374492034775 0.0014275158973513329 0.00024964926774878729 0.0058735924342534314 0.0020767584479580731 0.0043792727487230237 -0.0038046872628910936 0.0001963300075238714 -0.0004422638451950134 6.4519887483261268e-06 0.00022770064766518771 0.0012703135569134484 -7.5581892006629104e-05 0.00040534611356536236 -8.2753753148931227e-05 0.00017692729726673641 -0.0020052750594913961 0.0034329630825855671 0.00089401071967408225 0.0048336502513848245 -7.2108012745561803e-05
leaf_weight=138696 1343958 23 92929 101 896 65 35 27 12740 43 118 432 33 67 34 20 26 76 296057 20 23 46091 2523 1751 165 44 28 368 24 23
leaf_count=138696 1343958 23 92929 101 896 65 35 27 12740 43 118 432 33 67 34 20 26 76 296057 20 23 46091 2523 1751 165 44 28 368 24 23
internal_value=0 2.65675e-05 7.84701e-05 0.000565435 0.000228825 0.000936796 0.00110029 0.00337972 1.57123e-05 4.71925e-05 0.00036214 0.000939602 0.00181112 0.0013747 0.000822587 0.000180595 0.00256666 0.000737977 1.04159e-06 0.00299473 0.00398296 -1.0462e-05 0.000261451 1.25977e-05 0.000900115 0.000156472 0.000649306 0.0012759 0.000442427 0.00243296
internal_weight=0 547387 94681 1752 919 833 768 62 452706 143909 5213 774 342 299 223 163 60 143 308797 76 56 1.39005e+06 4439 1869 706 237 193 469 2570 47
internal_count=1937436 547387 94681 1752 919 833 768 62 452706 143909 5213 774 342 299 223 163 60 143 308797 76 56 1390049 4439 1869 706 237 193 469 2570 47
is_linear=0
shrinkage=0.1


Tree=6
num_leaves=31
num_cat=0
split_feature=1 4 10 6 13 12 3 17 11 10 7 6 16 13 17 2 10 5 1 17 8 8 9 1 12 9 0 6 6 16
split_gain=0.0447636 0.0269485 0.022005 0.0853988 0.0325475 0.0547886 0.0612049 0.0728483 0.031985 0.0691067 0.0245427 0.0230668 0.0296968 0.0360479 0.027779 0.0229301 0.0227073 0.0247224 0.0227499 0.0222866 0.0220218 0.0215332 0.0214104 0.0273674 0.0227805 0.0209302 0.0191306 0.0226372 0.0187224 0.029422
threshold=1686.3500000000001 8159.5000000000009 1660.8833500000003 1384.2500000000002 4.5000000000000009 1432.9634000000003 935.05000000000007 0.13294566661412713 693.26067000000012 903.34165000000019 1355.8500000000001 688.50000000000011 722373.72500000009 3.5000000000000004 0.42742578587230545 680.25000000000011 2622.0708500000005 2891712850.0000005 1227.2500000000002 0.37598298948945502 1354.325 861.22500000000014 1699.5500000000004 629.25000000000011 1763.0082500000003 2236.9333500000007 671.35000000000014 720.44000000000017 579.10000000000014 4304568.2500000009
decision_type=2 2 2 2 2 10 2 10 10 2 2 2 10 2 10 2 2 2 2 8 2 2 2 2 10 2 2 2 2 10
left_child=1 2 8 4 5 -4 7 -7 9 -1 20 12 -11 -14 21 -16 17 22 -19 -10 -5 -13 -8 -24 -25 -26 -23 -28 -6 -30
right_child=-2 -3 3 10 28 6 16 -9 19 11 -12 14 13 -15 15 -17 -18 18 -20 -21 -22 26 23 24 25 -27 27 -29 29 -31
leaf_value=3.3295567420462496e-05 -1.4851441052162544e-05 -5.6770876540947498e-05 3.3086659592959124e-05 -0.00010340326092608105 0.0025225427713141675 0.0015756380293597057 0.00047930991881319488 0.0090666736187856832 -0.00010501029498166839 0.0007852534530463271 3.390581362838373e-05 -0.00054396542811717928 0.0038087158155141639 -0.00023882498367236725 0.002693679362225036 0.00034416806047516806 -0.00041276609254505323 0.0057370018192820929 0.0014398171117396229 3.1747721894541269e-06 -0.0021878055477653571 -0.0013443455041075747 -1.7195482667795242e-05 0.00067426457093097269 0.0027796291872589007 -0.0004601802500970239 0.0020581943193236298 0.00017087725673139498 0.00024683994261976523 -0.0030586641290466544
leaf_weight=232879 991198 48854 687 110 36 34 368 21 19790 1843 121186 696 23 508 42 3780 101 22 28 503704 94 75 91 100 213 22 69 805 10030 27
leaf_count=232879 991198 48854 687 110 36 34 368 21 19790 1843 121186 696 23 508 42 3780 101 22 28 503704 94 75 91 100 213 22 69 805 10030 27
internal_value=0 1.55571e-05 1.94947e-05 5.70071e-05 0.000314071 0.000720644 0.001193 0.00443585 1.29578e-05 4.31272e-05 3.2061e-05 0.000335128 0.000595408 -6.35078e-05 0.000222103 0.000369987 0.00100426 0.00117383 0.00333058 -9.15022e-07 -0.00106386 -0.000121492 0.00103802 0.00152065 0.0019384 0.00247633 0.000188352 0.000319876 0.000246114 0.000237966
internal_weight=0 946238 897384 133170 11780 1687 1000 55 764214 240720 121390 7841 2374 531 5467 3822 945 844 50 523494 204 1645 794 426 335 235 949 874 10093 10057
internal_count=1937436 946238 897384 133170 11780 1687 1000 55 764214 240720 121390 7841 2374 531 5467 3822 945 844 50 523494 204 1645 794 426 335 235 949 874 10093 10057
is_linear=0
shrinkage=0.1


Tree=7
num_leaves=31
num_cat=0
split_feature=1 10 11 17 14 3 16 12 3 5 1 11 15 2 11 4 14 0 12 6 12 5 8 12 12 16 15 9 3 17
split_gain=0.0367763 0.0234439 0.0338436 0.0237309 0.0364218 0.0216208 0.0270116 0.0306246 0.0334635 0.0170144 0.0166574 0.0213867 0.0185307 0.0174204 0.024242 0.0511349 0.0165479 0.0216727 0.0159485 0.0573113 0.0366093 0.0329471 0.0349581 0.0521513 0.0262662 0.0223642 0.0214959 0.0209699 0.0268487 0.0290734
threshold=1052.1500000000003 1105.1676500000001 823.14423000000011 -1.0000000180025095e-35 527712.50000000012 853.50000000000011 62913.227000000006 1136.9039500000001 842.20000000000016 482496750.00000006 7611.0000000000009 376.5976500000001 85943.040000000008 8111.5000000000009 3539.1381500000002 4575.5000000000009 9713267.0000000019 528.40000000000009 1522.1302500000004 777.6400000000001 2174.1045000000008 164228570.00000003 1295.2750000000003 1710.8014500000002 1999.9802000000002 24088.475500000004 25236.257500000003 1037.4083000000003 788.50000000000011 0.3088117647058824
decision_type=2 2 10 10 2 2 10 10 2 2 2 10 10 2 10 2 2 2 10 2 10 2 2 10 10 10 10 2 2 10
left_child=1 9 3 16 18 6 -4 -8 -9 -1 -2 12 -12 -13 15 -15 17 -3 25 -20 21 24 23 -23 -21 26 27 -5 -29 -30
right_child=10 2 5 4 -6 -7 7 8 -10 -11 11 13 -14 14 -16 -17 -18 -19 19 20 -22 22 -24 -25 -26 -27 -28 28 29 -31
leaf_value=2.1747628893548993e-05 -5.5503718267961418e-06 -0.0027820221068144873 0.00019641917582568694 0.00014672136811272693 -2.8320255770449145e-05 5.1430242681995146e-05 -2.934110565465539e-05 -0.0010905777698245666 -0.0039837521892060702 -2.811058615839615e-05 -0.00015013561436176505 -8.8612268084200954e-05 -0.0012229955442741988 -0.0049864390930936982 -3.4190774119440448e-06 0.00047512359189568089 0.0024244794941127856 -3.0331896975804906e-05 0.0057589907189443089 2.363423719373721e-05 -3.8623853638916667e-05 0.0021556869216606414 -0.00043012489234873401 0.0074258668131993296 0.0033691930357800347 0.0003237471758558339 0.0034779676562720855 0.0030731276091786903 -0.0026902992156378571 0.0011684918761942847
leaf_weight=368656 1287135 29 257 267 1993 84646 133 124 59 84050 370 46833 285 30 55356 40 27 2201 24 123 276 57 24 28 29 3983 32 70 21 278
leaf_count=368656 1287135 29 257 267 1993 84646 133 124 59 84050 370 46833 285 30 55356 40 27 2201 24 123 276 57 24 28 29 3983 32 70 21 278
internal_value=0 2.19552e-05 6.72079e-05 0.000246633 0.00033527 4.7286e-05 -0.000564914 -0.0011841 -0.00202335 1.24909e-05 -8.64575e-06 -4.73593e-05 -0.000616953 -4.37109e-05 -5.77084e-06 -0.00186555 -3.63218e-05 -6.61162e-05 0.000474302 0.000977976 0.0007643 0.00161337 0.00294014 0.00389175 0.000661932 0.000413549 0.000949001 0.000821758 0.0013102 0.000897473
internal_weight=0 547387 94681 9462 7205 85219 573 316 183 452706 1.39005e+06 102914 655 102259 55426 70 2257 2230 5212 561 537 261 109 85 152 4651 668 636 369 299
internal_count=1937436 547387 94681 9462 7205 85219 573 316 183 452706 1390049 102914 655 102259 55426 70 2257 2230 5212 561 537 261 109 85 152 4651 668 636 369 299
is_linear=0
shrinkage=0.1


Tree=8
num_leaves=31
num_cat=0
split_feature=1 10 3 0 5 13 5 3 1 0 14 12 1 15 13 10 16 1 1 4 3 14 12 3 2 2 1 0 3 9
split_gain=0.0314783 0.0258726 0.0341898 0.0410294 0.0237257 0.0207526 0.0183223 0.0601416 0.0771638 0.0205659 0.0244884 0.0293152 0.0183089 0.017215 0.015951 0.0216381 0.0154523 0.0158451 0.0139974 0.0128678 0.0128675 0.0126061 0.0125973 0.0123352 0.0880431 0.0349307 0.0193727 0.017966 0.0179165 0.015933
threshold=1877.2500000000002 2029.2958000000001 1223.5000000000002 1316.5000000000002 99498350.000000015 2.5000000000000004 799247550.00000012 957.05000000000007 822.60000000000014 1142.5000000000002 780275.00000000012 1802.8556500000002 1239.1500000000003 1007573.5250000001 5.5000000000000009 2555.6250000000005 895663.87000000011 1074.2500000000002 727.05000000000007 8323.5000000000018 2354.5000000000005 3463595.7000000007 1710.8014500000002 1780.2500000000002 1980.5000000000002 1853.5000000000002 941.15000000000009 1818.5000000000002 1726.2500000000002 2753.1083500000004
decision_type=2 2 2 2 2 2 2 2 2 2 2 10 2 10 2 2 10 2 2 2 2 2 10 2 2 2 2 2 2 2
left_child=1 4 3 6 18 -6 -3 8 -8 13 11 -11 14 16 15 -12 17 22 -1 -2 -20 -16 -9 24 25 -4 27 -27 -29 -28
right_child=19 2 23 -5 5 -7 7 9 -10 10 12 -13 -14 -15 21 -17 -18 -19 20 -21 -22 -23 -24 -25 -26 26 29 28 -30 -31
leaf_value=4.824026541420913e-05 -1.2431366796039725e-05 0.00025668505230773381 9.0285322778649776e-05 0.0042837041964823453 -0.00023495913505026706 -6.6531228727412426e-06 -0.00065262080350380746 -0.0011002117781788998 0.0071015780167230829 0.00069267959722007317 0.0036407124751005196 0.004852497859155847 -0.0019711531664210339 0.0013030711448352252 0.00090934728766168366 -0.00021467181548662971 -0.003762739165686071 -0.0026248427078826354 1.1651051087489537e-05 -0.00011187003823139792 -0.00064910277878232718 -0.0013646860429281859 0.0024065441510174425 3.3161020511312602e-05 0.0063091067131608725 -0.0013093104622385 0.00089198180841115336 0.0033822131077093742 -7.8590550849464937e-05 0.0024779270324624784
leaf_weight=148919 870566 2360 16973 27 4014 490512 21 21 33 36 37 32 27 35 68 24 20 24 314593 13211 295 38 20 74848 23 72 440 21 52 74
leaf_count=148919 870566 2360 16973 27 4014 490512 21 21 33 36 37 32 27 35 68 24 20 24 314593 13211 295 38 20 74848 23 72 440 21 52 74
internal_value=0 1.16738e-05 6.13585e-05 0.000404178 6.73167e-06 -8.50625e-06 0.000366714 0.000962287 0.00408606 0.000520707 0.00101728 0.00265024 0.0004449 -0.000563476 0.00083552 0.00212384 -0.00133205 -0.000584151 2.29788e-05 -1.39178e-05 1.1032e-05 9.41278e-05 0.000610401 5.08964e-05 0.000126085 0.00011802 0.000832334 -0.000188487 0.000916983 0.00112031
internal_weight=0 1.05366e+06 95326 2823 958333 494526 2796 436 54 382 262 68 194 120 167 61 85 65 463807 883777 314888 106 41 92503 17655 17632 659 145 73 514
internal_count=1937436 1053659 95326 2823 958333 494526 2796 436 54 382 262 68 194 120 167 61 85 65 463807 883777 314888 106 41 92503 17655 17632 659 145 73 514
is_linear=0
shrinkage=0.1


Tree=9
num_leaves=31
num_cat=0
split_feature=4 1 1 10 11 1 13 8 3 17 13 10 6 12 12 14 6 16 8 3 13 6 17 2 4 4 1 6 7 3
split_gain=0.0285575 0.0300998 0.0130186 0.0327082 0.0376267 0.0309245 0.0250218 0.035226 0.0583383 0.022762 0.0166633 0.0169741 0.0904871 0.0496477 0.0281062 0.022479 0.0212541 0.0200917 0.0188065 0.015529 0.0191897 0.0295049 0.0183106 0.0142581 0.0180627 0.0299872 0.013633 0.0132637 0.0140063 0.0456836
threshold=8159.5000000000009 727.05000000000007 2281.5000000000005 2598.4416500000002 2004.6783500000004 1550.2500000000002 4.5000000000000009 2100.6375000000003 1686.5000000000002 0.42742578587230545 4.5000000000000009 1378.7625000000003 1202.7 1643.3534000000002 2205.5647000000004 1426787.5000000002 1141.9000000000003 58704.902500000004 1403.7750000000003 2180.2500000000005 3.5000000000000004 1973.4500000000003 0.13294566661412713 1184.2500000000002 4678.0000000000009 6808.0000000000009 1085.2500000000002 4545.5000000000009 1895.8500000000001 1713.2500000000002
decision_type=2 2 2 2 10 2 2 2 2 10 2 2 2 10 10 2 2 10 2 2 2 2 10 2 2 2 2 2 2 2
left_child=1 -1 3 9 5 -5 7 -7 -9 10 11 -3 13 15 16 17 18 -13 -15 20 21 -10 -22 24 -19 -26 -27 28 -8 -30
right_child=-2 2 -4 4 -6 6 27 8 19 -11 -12 12 -14 14 -16 -17 -18 23 -20 -21 22 -23 -24 -25 25 26 -28 -29 29 -31
leaf_value=3.3403152850113397e-05 -5.4143700625026026e-05 -0.00011147519575615533 -1.326368450459292e-05 3.962697326394964e-05 4.1500249081662989e-05 0.00014062677706373666 3.2958534510526523e-05 0.0051443521183384107 0.005598688058555127 4.1157450858234018e-06 -9.3808457049460528e-05 0.0013360154042617834 2.8529991239496514e-05 0.003207724655145093 -4.8794985495452937e-05 0.0035010363552898452 0.0014320444426595955 0.00089641078375279903 0.0063407210089887192 -0.00014943001115625521 -0.0003449625538196415 0.0014995696650565429 0.0014487184496336002 0.0018134161229095152 -0.0024469020436032832 0.0025942199837035418 -0.00085211782473682744 -0.0020818301386695925 0.0019203511670073785 0.0003399517185567432
leaf_weight=272524 92751 4066 662163 3978 53908 364 1230 39 25 795339 40542 152 5747 95 34 26 53 61 24 80 75 59 236 31 75 22 24 23 193 3497
leaf_count=272524 92751 4066 662163 3978 53908 364 1230 39 25 795339 40542 152 5747 95 34 26 53 61 24 80 75 59 236 31 75 22 24 23 193 3497
internal_value=0 2.72235e-06 -2.59597e-06 5.16643e-06 7.42659e-05 0.000254522 0.000401379 0.000893315 0.00142635 -3.52279e-08 -6.48301e-05 4.80266e-05 0.000150255 0.00132203 0.0025784 0.000660109 0.00309773 0.000457742 0.00383959 0.00112108 0.0013784 0.00271955 0.00101616 -0.000169008 -0.000506674 -0.00121401 0.000796131 0.000313999 0.000325199 0.000422612
internal_weight=0 1.84468e+06 1.57216e+06 909998 63707 9799 5821 878 514 846291 50952 10410 6344 597 206 391 172 365 119 475 395 84 311 213 182 121 46 4943 4920 3690
internal_count=1937436 1844685 1572161 909998 63707 9799 5821 878 514 846291 50952 10410 6344 597 206 391 172 365 119 475 395 84 311 213 182 121 46 4943 4920 3690
is_linear=0
shrinkage=0.1


Tree=10
num_leaves=31
num_cat=0
split_feature=4 11 10 6 17 7 1 13 12 1 10 0 7 12 6 5 9 17 2 8 16 11 9 10 9 5 9 5 17 10
split_gain=0.0231315 0.0252721 0.0334038 0.0396191 0.019933 0.0245321 0.0242707 0.0195159 0.0556311 0.0256111 0.0311955 0.03462 0.0672662 0.0373636 0.0261111 0.0198549 0.0204983 0.017662 0.0184165 0.0540829 0.0450234 0.0455543 0.0377588 0.0469654 0.0368353 0.0197688 0.0433438 0.0213594 0.0273019 0.0258302
threshold=8159.5000000000009 745.91617500000018 903.34165000000019 699.70000000000016 0.47593764650726683 688.05000000000007 5142.0000000000009 4.5000000000000009 923.21740000000011 674.20000000000016 1105.1676500000001 622.50000000000011 688.05000000000007 1010.9975800000001 552.74000000000012 151524095.00000003 730.0518350000001 1.4021998341052053 981.50000000000011 709.37500000000011 114460.99000000001 693.26067000000012 616.09165000000019 553.59582000000012 551.56297500000016 11153273500.000002 709.48677000000009 1856151850.0000002 1.6830018270516662 698.90415000000019
decision_type=2 10 2 2 10 2 2 2 10 2 2 2 2 10 2 2 2 10 2 2 10 10 2 2 2 2 2 2 10 2
left_child=1 2 17 7 5 -5 -6 8 -4 10 11 12 14 -13 -10 16 -9 -1 -19 -20 21 -21 24 -24 -22 27 -27 -25 -29 -30
right_child=-2 -3 3 4 6 -7 -8 15 9 -11 -12 13 -14 -15 -16 -17 -18 18 19 20 22 -23 23 25 -26 26 -28 28 29 -31
leaf_value=5.4891840540258039e-06 -4.8729330813302926e-05 -2.6960912847544705e-06 3.1060730971499893e-05 -0.0033663518218831584 0.00021271382541673155 -2.1444030394110799e-05 -0.0030404954655197168 0.0031133456904873518 0.0053521305231539456 0.00031696401711087677 0.0052538200383778757 0.0015903012033689906 -0.0033950307943786569 0.0070751368108650922 0.00072661580141777037 0.00015636488235215232 0.0006491626703787729 5.4288186502838969e-05 -0.003300844840347194 0.0059573323710571495 -0.00019493284356861336 0.0012799488617859494 -0.0042512066510465487 0.000422141948259129 0.0050182793670418592 0.005745172290508414 0.00028055804320908294 -0.0040884490712778648 0.0011601237023569412 -0.00089578498582704939
leaf_weight=205140 92751 1545855 233 22 7858 6548 23 35 23 52 41 27 26 23 26 1467 951 74575 39 27 23 91 23 1148 33 21 47 20 88 200
leaf_count=205140 92751 1545855 233 22 7858 6548 23 35 23 52 41 27 26 23 26 1467 951 74575 39 27 23 91 23 1148 33 21 47 20 88 200
internal_value=0 2.45012e-06 2.90716e-05 0.000163718 9.59863e-05 -3.26446e-05 0.00020322 0.000500765 0.00110535 0.00225356 0.0028602 0.00207509 0.000716269 0.00411333 0.00289778 0.000389608 0.000736634 2.07697e-05 6.18339e-05 0.000381563 0.000465011 0.0023502 0.000326239 0.000233898 0.00287714 0.000301587 0.00196816 0.000223753 -0.000515698 -0.000267591
internal_weight=0 1.84468e+06 298830 17355 14451 6570 7881 2904 451 218 166 125 75 50 49 2453 986 281475 76335 1760 1721 118 1603 1547 56 1524 68 1456 308 288
internal_count=1937436 1844685 298830 17355 14451 6570 7881 2904 451 218 166 125 75 50 49 2453 986 281475 76335 1760 1721 118 1603 1547 56 1524 68 1456 308 288
is_linear=0
shrinkage=0.1


Tree=11
num_leaves=31
num_cat=0
split_feature=5 13 5 4 17 1 1 7 17 4 17 13 6 10 14 16 4 1 6 10 1 14 4 0 3 10 5 11 12 16
split_gain=0.0227933 0.0193798 0.0213971 0.0247768 0.0244309 0.0177606 0.0164724 0.0238745 0.0310743 0.0151681 0.0137555 0.0605278 0.0307589 0.0534876 0.0215072 0.0343922 0.0279723 0.0219451 0.0190538 0.0240981 0.0145796 0.0656291 0.021517 0.0162395 0.0408563 0.0305316 0.0225998 0.0207244 0.0180313 0.0173214
threshold=67370400.000000015 2.5000000000000004 11153273500.000002 6268.5000000000009 -0.51540320406126328 663.15000000000009 2189.1000000000004 3525.6500000000005 1.4021998341052053 7103.5000000000009 0.34629923874119578 4.5000000000000009 720.44000000000017 945.15860000000009 1490612.5000000002 300432.95000000007 4247.5000000000009 663.15000000000009 537.10000000000014 665.77083000000005 126.35000000000001 9713267.0000000019 2351.0000000000005 729.35000000000014 698.35000000000014 1018.1291500000001 157657430.00000003 211.85053500000004 855.20677500000011 240852.03500000003
decision_type=2 2 2 2 10 2 2 2 10 2 10 2 2 2 2 10 2 2 2 2 2 2 2 2 2 2 2 10 10 10
left_child=5 2 -2 4 -4 -1 -6 -8 -9 10 11 12 13 18 15 16 -15 -18 19 -3 21 22 -13 25 -25 27 -27 29 -28 -22
right_child=1 9 3 -5 6 -7 7 8 -10 -11 -12 20 -14 14 -16 -17 17 -19 -20 -21 23 -23 -24 24 -26 26 28 -29 -30 -31
leaf_value=5.2749793708559732e-05 -0.00017996699375021899 0.00049595276907892058 0.0042222758889413226 -0.00020038788483853808 -0.00090406836304617554 8.1067323615601444e-06 0.0035751494721472754 -0.00093300101887011395 0.0027301202935632318 -2.6303116625885505e-05 1.8619181793761702e-06 -0.0026327371471919696 0.00011549106894675986 0.00029953627252123424 0.0045872415365600912 -0.0012876434518990143 0.0062086390495231306 0.0018984337814063543 -0.00014640882572148909 0.002283014931405584 0.0031911831303580622 0.0054378622999558084 0.00056598952212714895 0.0042162362057503993 -9.4699951533461978e-05 0.00021660605807951894 0.0005147488463032795 -0.00028608842169053301 -0.0018076846354390603 0.00034596319875379583
leaf_weight=109205 9206 467 26 207 38 484409 38 55 40 292689 998018 26 7036 27 37 27 27 21 363 90 23 26 110 22 31112 97 38 3371 278 307
leaf_count=109205 9206 467 26 207 38 484409 38 55 40 292689 998018 26 7036 27 37 27 27 21 363 90 23 26 110 22 31112 97 38 3371 278 307
internal_value=0 -7.20894e-06 -0.000148708 0.000563588 0.00136635 1.63196e-05 0.00093211 0.00145673 0.000609366 -6.18975e-06 -5.37491e-07 -5.55807e-05 0.000191115 0.000693564 0.00252194 0.00177276 0.0028745 0.00432292 0.000417321 0.000784706 -0.000111977 0.000834519 -4.55318e-05 -0.000116327 -9.16537e-05 -0.000303053 -0.00111856 -0.00021205 -0.0015284 0.000544266
internal_weight=0 1.34382e+06 9610 404 197 593614 171 133 95 1.33421e+06 1.04152e+06 43505 8095 1059 139 102 75 48 920 557 35410 162 136 35248 31134 4114 413 3701 316 330
internal_count=1937436 1343822 9610 404 197 593614 171 133 95 1334212 1041523 43505 8095 1059 139 102 75 48 920 557 35410 162 136 35248 31134 4114 413 3701 316 330
is_linear=0
shrinkage=0.1


Tree=12
num_leaves=31
num_cat=0
split_feature=3 10 13 17 16 3 14 14 11 9 2 13 5 4 4 5 3 12 1 10 11 17 7 3 9 1 4 8 3 7
split_gain=0.0194099 0.075166 0.0450061 0.0335158 0.0316291 0.0288755 0.0274101 0.0193351 0.0223154 0.0260736 0.0171792 0.0170037 0.0194215 0.0231729 0.0228736 0.0258773 0.0466909 0.0285891 0.0169698 0.0242251 0.0310899 0.0223747 0.0354889 0.0399477 0.0518903 0.0618113 0.0315746 0.0504403 0.0359419 0.029038
threshold=331.05000000000007 430.62500000000006 4.5000000000000009 0.2265503010142921 38793.242000000006 230.50000000000003 1008870.8000000002 105345.83200000001 307.63652000000008 524.54165500000011 341.50000000000006 2.5000000000000004 11153273500.000002 4526.5000000000009 3453.0000000000005 15146084000.000002 5220.5000000000009 5915.5066000000015 2138.5000000000005 2196.8083500000007 1711.6966000000002 1.0000000180025095e-35 1895.8500000000001 1981.2500000000002 2707.6916500000002 1436.2500000000002 4320.5000000000009 2470.1750000000006 1673.5000000000002 2073.4750000000004
decision_type=2 2 2 10 10 2 2 2 10 2 2 2 2 2 2 2 2 10 2 2 10 10 2 2 2 2 2 2 2 2
left_child=1 -1 3 -3 -5 6 -4 -7 -9 -10 -6 12 -2 14 -14 16 -16 -17 19 -13 21 -21 -23 24 -24 -26 29 28 -28 -27
right_child=11 2 5 4 10 7 -8 8 9 -11 -12 18 13 -15 15 17 -18 -19 -20 20 -22 22 23 -25 25 26 27 -29 -30 -31
leaf_value=3.9708523521940703e-05 -0.00013519967775598381 0.0042007163585232642 0.0056476096522861292 0.0050514978977541126 0.0015475324801019006 0.0017231998971860428 0.00047484459966653961 0.00048875420305547043 -0.00031294679703840135 -0.0041781741986051208 -0.00069029022780980203 2.1183389510339678e-06 -0.00019019000327534743 -2.9515527788450779e-05 0.0078166821494232864 -0.00061213874739494078 0.0011407099673471583 0.0040074559776777669 -1.2608129808623911e-05 -3.3147134385240775e-05 2.900861124734192e-05 0.00015788156781686361 0.00052842557550683436 9.5037546801240047e-05 0.00012197773304470847 0.0030245021342280064 0.0052409666879857722 0.0064092560951478864 0.0016577548968210898 -0.00037486599251645167
leaf_weight=52219 12934 54 21 21 127 104 20 881 137 20 47 1020155 50 239 20 37 22 21 743955 3856 89740 10182 1093 1040 145 47 37 43 115 54
leaf_count=52219 12934 54 21 21 127 104 20 881 137 20 47 1020155 50 239 20 37 22 21 743955 3856 89740 10182 1093 1040 145 47 37 43 115 54
internal_value=0 5.93096e-05 0.000774077 0.00199604 0.00138551 0.000516876 0.00312431 0.000423264 0.00029302 -0.000805332 0.000943063 -1.68916e-06 -0.000114261 0.000581936 0.00155618 0.00242937 0.00431974 0.00106047 -8.87332e-07 6.85319e-06 5.2271e-05 0.000177937 0.000241746 0.000573489 0.000897862 0.00181349 0.00264211 0.00338541 0.00252998 0.00120702
internal_weight=0 53651 1432 249 195 1183 41 1142 1038 157 174 1.88378e+06 13323 389 150 100 42 58 1.87046e+06 1.12651e+06 106352 16612 12756 2574 1534 441 296 195 152 101
internal_count=1937436 53651 1432 249 195 1183 41 1142 1038 157 174 1883785 13323 389 150 100 42 58 1870462 1126507 106352 16612 12756 2574 1534 441 296 195 152 101
is_linear=0
shrinkage=0.1


Tree=13
num_leaves=31
num_cat=0
split_feature=5 4 1 1 17 17 13 10 3 16 8 15 16 11 11 10 1 16 17 13 3 10 14 16 10 12 5 12 6 11
split_gain=0.0181119 0.0136655 0.0133955 0.0132851 0.0169649 0.012637 0.0125736 0.0105842 0.0234181 0.0503301 0.0194556 0.0174665 0.0197053 0.0155737 0.0180058 0.0171931 0.0117561 0.0127847 0.0103008 0.0462578 0.0216386 0.0405637 0.0259523 0.0276062 0.0249203 0.0246934 0.0157153 0.0146589 0.024775 0.0150671
threshold=67370400.000000015 7103.5000000000009 663.15000000000009 13012.500000000002 -1.0000000180025095e-35 1.016745625880912 2.5000000000000004 721.54165000000012 577.10000000000014 24088.475500000004 651.97500000000014 44802.543500000007 38145.879000000008 494.27483000000001 567.86074500000007 755.47082000000012 176.35000000000005 6084.2161500000011 0.34629923874119578 4.5000000000000009 637.10000000000014 934.86457000000007 1490612.5000000002 145368.68000000002 1105.1676500000001 944.37796500000013 11153273500.000002 855.20677500000011 605.04000000000008 243.04845500000002
decision_type=2 2 2 2 10 10 2 2 2 10 2 10 10 10 10 2 2 10 8 2 2 2 2 10 2 10 2 10 2 10
left_child=2 3 7 18 -5 -6 -3 -1 9 13 -11 12 -12 15 -15 -9 17 -10 19 20 21 25 23 -23 -25 27 -22 29 -29 -2
right_child=1 6 -4 4 5 -7 -8 8 16 10 11 -13 -14 14 -16 -17 -18 -19 -20 -21 26 22 -24 24 -26 -27 -28 28 -30 -31
leaf_value=3.0837785298114117e-05 0.0012713476020181612 -0.00026389112958064801 7.4149418967193828e-06 -0.00057173530328676113 9.472487927035203e-06 -0.00011361512405197684 -2.3657038003388282e-05 0.0012630322207273408 0.0016488343909329092 0.00038800825446715532 -0.0017281227146870354 -0.0031523355562239883 0.0018847188012352072 0.00099894855216603158 0.0038115233392023518 0.0049183335906315233 6.96348443418293e-05 0.00031635239569156827 3.1093189008493309e-06 -0.00010123645557482444 6.477282699437593e-05 0.0037879061610014602 0.0048910544542916899 -0.0014198119431180327 0.0027718587874677844 -0.0017944576653569717 0.00077416681840203154 0.0047427912774894929 0.00016310461193185162 0.00019419549811103818
leaf_weight=87853 156 2195 484409 642 16497 16871 292689 22 78 613 36 30 26 145 27 31 19407 937 971557 33914 7980 33 29 37 23 51 325 21 27 775
leaf_count=87853 156 2195 484409 642 16497 16871 292689 22 78 613 36 30 26 145 27 31 19407 937 971557 33914 7980 33 29 37 23 51 325 21 27 775
internal_value=0 -6.42612e-06 1.45475e-05 -1.07935e-06 -6.25577e-05 -5.27611e-05 -2.54452e-05 4.61857e-05 0.000109335 0.000600089 0.000184495 -0.00117152 -0.00021306 0.00190228 0.00144046 0.00340104 8.69863e-05 0.00041875 9.80776e-07 -4.67009e-05 0.000148871 0.000555016 0.00227919 0.00146474 0.000186995 0.000350793 9.25336e-05 0.000462548 0.00216672 0.000374685
internal_weight=0 1.34382e+06 593614 1.04894e+06 34010 33368 294884 109205 21352 930 705 92 62 225 172 53 20422 1015 1.01493e+06 43371 9457 1152 122 93 60 1030 8305 979 48 931
internal_count=1937436 1343822 593614 1048938 34010 33368 294884 109205 21352 930 705 92 62 225 172 53 20422 1015 1014928 43371 9457 1152 122 93 60 1030 8305 979 48 931
is_linear=0
shrinkage=0.1


Tree=14
num_leaves=31
num_cat=0
split_feature=4 3 10 13 12 3 14 17 13 11 4 3 5 8 5 15 1 16 12 4 9 11 8 17 13 7 11 4 11 10
split_gain=0.0164643 0.0173471 0.0602595 0.0381668 0.0272736 0.0232843 0.0221382 0.0156598 0.035254 0.0194258 0.023959 0.0190103 0.0171103 0.0150327 0.0141476 0.0189205 0.0134252 0.0174367 0.013098 0.0129299 0.0219966 0.0225789 0.0127493 0.0122144 0.0189115 0.0310084 0.0187645 0.064147 0.0277639 0.0475171
threshold=8159.5000000000009 331.05000000000007 430.62500000000006 4.5000000000000009 458.14911000000006 230.50000000000003 1008870.8000000002 0.36200437719027351 6.5000000000000009 267.70485000000002 3648.5000000000005 289.50000000000006 821457800.00000012 427.25000000000006 340604900.00000006 3830855.2500000005 126.35000000000001 5613.7214500000009 544.58917000000008 4550.5000000000009 479.34167500000007 288.14371000000006 354.12500000000006 0.34629923874119578 4.5000000000000009 335.65000000000003 122.96485200000002 4478.5000000000009 211.85053500000004 393.36666500000007
decision_type=2 2 2 2 10 2 2 10 2 10 2 2 2 2 2 10 2 10 10 2 2 10 2 10 2 2 10 2 10 2
left_child=1 2 -1 4 -4 6 -5 8 9 10 -7 -12 22 -9 15 16 17 -3 -11 -6 -21 -22 -10 24 -16 -26 27 -25 29 -28
right_child=-2 14 3 5 19 7 -8 13 12 18 11 -13 -14 -15 23 -17 -18 -19 -20 20 21 -23 -24 26 25 -27 28 -29 -30 -31
leaf_value=4.2466549443088313e-05 -4.1111196609645529e-05 0.0024647719676707041 0.00097785643512442546 0.0050799935512865586 0.0011869970895349979 0.0039047138544666612 0.00043122312112245706 0.00056844610781067717 -0.00074220928862424838 8.2209487255586653e-05 0.0015866844038778948 -0.0016168934892414621 -6.7276345247304755e-05 0.0033487693806819154 7.1893478023189348e-05 0.0030091253536132477 7.0893316214424522e-06 0.00026323696113230165 -0.0026698232273615545 0.0063813801590225441 0.0048564761549641849 0.00060299526577672132 -0.0037599345247837758 0.005294278571091127 0.0035594985425553244 -0.00011392449262801069 -1.9427449352895986e-05 -0.0010875884695754699 -7.6709749115028852e-06 -0.0050171199052905045
leaf_weight=46476 92751 37 141 21 25 29 20 703 21 98 59 27 38 20 7294 21 1100641 1300 21 23 24 26 42 28 23 25583 52 36 661826 30
leaf_count=46476 92751 37 141 21 25 29 20 703 21 98 59 27 38 20 7294 21 1100641 1300 21 23 24 26 42 28 23 25583 52 36 661826 30
internal_value=0 2.06707e-06 6.15145e-05 0.000723154 0.00186844 0.000474088 0.0028123 0.000383476 -0.000181716 0.000492244 0.00141909 0.00058091 -0.00174317 0.000645357 4.85203e-07 7.53123e-06 7.47403e-06 0.000324162 -0.000403443 0.0031498 0.00382199 0.00264467 -0.00275403 -1.06891e-05 -7.01602e-05 -0.000110625 -7.73339e-06 0.00170448 -7.89894e-06 -0.00184785
internal_weight=0 1.84468e+06 47814 1338 239 1099 41 1058 335 234 115 86 101 723 1.79687e+06 1.102e+06 1.10198e+06 1337 119 98 73 50 63 694872 32900 25606 661972 64 661908 82
internal_count=1937436 1844685 47814 1338 239 1099 41 1058 335 234 115 86 101 723 1796871 1101999 1101978 1337 119 98 73 50 63 694872 32900 25606 661972 64 661908 82
is_linear=0
shrinkage=0.1


Tree=15
num_leaves=31
num_cat=0
split_feature=1 10 6 13 12 3 17 9 11 3 8 7 15 9 0 11 11 15 11 14 12 0 11 5 17 1 5 16 3 6
split_gain=0.0140749 0.0159346 0.0683265 0.0257211 0.0451494 0.0429004 0.0962223 0.0174887 0.0160785 0.0143757 0.0142372 0.0271003 0.0212359 0.0159984 0.0140748 0.0133554 0.0188278 0.0220186 0.0220074 0.0184051 0.014074 0.027732 0.0363738 0.0132803 0.0130959 0.0225113 0.0155616 0.0154667 0.0228338 0.0147569
threshold=1710.2500000000002 1636.8292000000004 1384.2500000000002 4.5000000000000009 1432.9634000000003 957.05000000000007 0.13294566661412713 3726.8750000000005 556.1632350000001 534.15000000000009 1235.2750000000003 1355.8500000000001 17184.585500000005 1257.1750000000004 8045.0000000000009 1229.9245000000003 862.94815000000006 327819.28000000009 1004.2724700000001 83587.500000000015 1958.6991500000001 1205.2500000000002 1127.1199500000002 60356966.000000007 0.53027228811577898 294.15000000000003 119156238.00000001 441940.0450000001 139.50000000000003 1191.1000000000001
decision_type=2 2 2 2 10 2 10 2 10 2 2 2 10 2 2 10 10 10 10 2 10 2 10 2 10 2 2 10 2 2
left_child=1 23 3 4 -3 6 8 15 -6 -5 -4 12 -12 -13 -15 16 17 -7 19 -18 -20 -22 -23 -1 25 26 -25 28 -28 -30
right_child=-2 2 10 9 5 7 -8 -9 -10 -11 11 13 -14 14 -16 -17 18 -19 20 -21 21 22 -24 24 -26 -27 27 -29 29 -31
leaf_value=1.9132351599973866e-05 -8.4574107039772212e-06 4.1953391097986273e-06 0.0022725872564478776 0.0028138645425704973 -0.0012081212523669281 0.0005884682800454575 0.007485223333424074 -0.0020225447507636134 0.0024812416705702034 0.00019498435067509502 0.0010576384518774123 -0.0016708115744612378 -0.0016230094706054044 1.8381392149302772e-05 0.00074647635205507047 0.00027081765856635522 0.0003504370542941615 -0.0029555281018838289 0.00079035787249176308 0.0032861229051680619 2.5796126479887078e-05 0.0061123836552724247 0.0010593321816674594 -0.00014245084691466556 -1.4884183328956389e-06 -6.9042660571864441e-05 0.0038042005860125239 0.00014988995392284984 0.00052279389882314137 0.0028213822474205293
leaf_weight=311242 976238 754 28 21 27 142 32 21 21 11095 36 56 165 141362 266 257 28 20 378 90 37 28 29 903 440214 51728 23 1409 757 29
leaf_count=311242 976238 754 28 21 27 142 32 21 21 11095 36 56 165 141362 266 257 28 20 378 90 37 28 29 903 440214 51728 23 1409 757 29
internal_value=0 8.58974e-06 3.79661e-05 0.000257576 0.000601339 0.00100697 0.00323767 0.000833708 0.000405975 0.000199932 1.78795e-05 1.74346e-05 -0.00114289 1.90807e-05 1.97489e-05 0.000893154 0.00110584 0.000150938 0.00136803 0.00258952 0.00106266 0.00215768 0.00354153 2.94648e-06 -7.22944e-06 -5.33064e-05 0.000207508 0.000349985 0.000698482 0.000607602
internal_weight=0 961198 154893 12980 1864 1110 80 1030 48 11116 141913 141885 201 141684 141628 1009 752 162 590 118 472 94 57 806305 495063 54849 3121 2218 809 786
internal_count=1937436 961198 154893 12980 1864 1110 80 1030 48 11116 141913 141885 201 141684 141628 1009 752 162 590 118 472 94 57 806305 495063 54849 3121 2218 809 786
is_linear=0
shrinkage=0.1


Tree=16
num_leaves=31
num_cat=0
split_feature=4 11 10 12 12 3 17 17 0 1 17 3 0 8 7 15 7 1 16 15 17 16 5 5 12 17 1 15 2 16
split_gain=0.0136919 0.0142395 0.0293579 0.0341163 0.0195299 0.0328817 0.0353422 0.0226005 0.0320915 0.0271228 0.0269547 0.0214876 0.0625542 0.0297769 0.026264 0.0302601 0.0264076 0.0237678 0.0223285 0.0183403 0.0174795 0.0173417 0.0168455 0.0163079 0.0258757 0.0196667 0.0281618 0.0162369 0.0160623 0.015741
threshold=8323.5000000000018 532.37807500000008 653.82915000000014 1999.9802000000002 923.21740000000011 388.50000000000006 0.46686195779457812 0.7000385505011566 634.50000000000011 674.20000000000016 0.80006553079947584 603.50000000000011 622.50000000000011 892.22500000000014 664.1500000000002 94993.510000000024 578.45000000000016 495.15000000000003 271293.35000000003 374330.20500000002 2.2293405532179076 625917.40000000014 3934799750.0000005 494326135.00000006 1291.2327000000002 1.0000000180025095e-35 772.20000000000016 688064.47500000009 680.25000000000011 74958.460000000006
decision_type=2 10 2 8 10 2 10 10 2 2 10 2 2 2 2 10 2 2 10 10 10 10 2 2 10 10 2 10 2 10
left_child=1 2 -1 4 22 -6 11 8 -8 -10 -9 12 13 14 15 29 18 -18 -17 23 -5 -21 -4 24 28 -26 -27 -22 -13 -7
right_child=-2 -3 3 20 5 6 7 10 9 -11 -12 19 -14 -15 -16 16 17 -19 -20 21 27 -23 -24 -25 25 26 -28 -29 -30 -31
leaf_value=1.7516752915955496e-05 -5.9816143140151931e-05 -1.4692754718424837e-06 0.00025558972581218013 -6.0517719185620633e-05 0.0036010755396706077 0.00069522686784953948 0.0010210502294962769 -0.0026152972830459477 0.0073005036495271186 0.002276146564029411 0.0011998783470109631 0.00025448001987699953 0.0052271895122650118 0.0035339033524333326 -0.0023502413396878793 0.00054004941643639038 0.0033515403401106602 -0.00017062324417255274 -0.0034828875836840759 -0.0033108207307283436 -0.0038216462067794058 -0.00050847493296873479 -0.0005716162669534029 0.0022176985261467053 -7.7538565279897546e-05 0.0043215950564315011 -0.00040091079072621853 -0.00014323303475975992 -0.0024026541494262909 0.003694368712604046
leaf_weight=150916 37526 1737061 7119 3347 37 35 51 20 21 22 250 35 29 27 39 22 25 82 37 34 24 63 255 32 152 28 23 24 65 35
leaf_count=150916 37526 1737061 7119 3347 37 35 51 20 21 22 250 35 29 27 39 22 25 82 37 34 24 63 255 32 152 28 23 24 65 35
internal_value=0 1.18146e-06 2.9456e-05 0.000180451 0.000287073 0.000667742 0.000571439 0.00138221 0.00271765 0.0047299 0.000917273 0.000184651 0.000790912 0.000364912 5.37748e-05 0.000451049 -0.000284267 0.000652312 -0.00198281 -0.000279869 -8.76907e-05 -0.00149074 0.000226984 7.07417e-05 -0.000156 0.0004926 0.00219184 -0.00198244 -0.00147266 0.0021948
internal_weight=0 1.89991e+06 162849 11933 8538 1164 1127 364 94 43 270 763 331 302 275 236 166 107 59 432 3395 97 7374 335 303 203 51 48 100 70
internal_count=1937436 1899910 162849 11933 8538 1164 1127 364 94 43 270 763 331 302 275 236 166 107 59 432 3395 97 7374 335 303 203 51 48 100 70
is_linear=0
shrinkage=0.1


Tree=17
num_leaves=31
num_cat=0
split_feature=13 5 4 1 7 12 11 17 11 10 3 6 1 7 3 1 1 0 7 17 11 5 8 9 9 17 6 14 7 4
split_gain=0.0124478 0.0124505 0.0190899 0.0168197 0.0279337 0.0217298 0.0426221 0.0200667 0.0123492 0.0259904 0.0423549 0.0350134 0.0208744 0.0185872 0.0163676 0.015351 0.0358216 0.135253 0.0683105 0.0445522 0.0424537 0.0420949 0.0262764 0.0337881 0.0389238 0.0283128 0.0254072 0.0244869 0.0208344 0.0259917
threshold=2.5000000000000004 12744554000.000002 6501.5000000000009 2189.1000000000004 3525.6500000000005 5104.3205000000007 5293.271200000001 0.8832543214293701 1522.6756000000003 1660.8833500000003 1357.5000000000002 1570.1000000000001 1374.2500000000002 3961.2500000000005 534.15000000000009 872.10000000000014 1107.2500000000002 1169.2500000000002 1152.9500000000003 1.0000000180025095e-35 948.75171000000012 618133400.00000012 1666.7375000000002 2079.6083500000004 2141.2584000000002 0.52281297724034581 1420.9000000000003 174095.83500000005 1515.4500000000003 3610.0000000000005
decision_type=2 2 2 2 2 10 10 10 10 2 2 2 2 2 2 2 2 2 2 10 10 2 2 2 2 10 2 2 2 2
left_child=1 -1 3 -3 7 -6 -7 -5 9 -2 11 14 -13 -12 -11 26 17 18 -17 -20 21 27 28 25 -25 -24 -16 -21 -18 -30
right_child=8 2 -4 4 5 6 -8 -9 -10 10 13 12 -14 -15 15 16 22 -19 19 20 -22 -23 23 24 -26 -27 -28 -29 29 -31
leaf_value=-0.00010861688408512913 5.2253774814103815e-06 -0.00074677258705966839 -0.00029887250641558248 0.00593897391227074 -0.0012678228746688762 0.0045350609824527056 -0.00088984161848202356 0.0017145351725681079 -6.6035647627515245e-06 0.0029203789146698043 3.2534936149580466e-05 -0.00076419029005562827 -0.0041237905898707959 -0.00066771712729387603 6.8166698480743592e-05 0.00018118458005877925 0.00027686946308731937 0.0078341959941166436 -0.00017344837823142132 0.0046521945214220168 0.0016369839795397243 0.0074357703597092168 -0.00073128105665091429 0.0033059520028090403 -9.4422273826748397e-05 -0.003383915378160927 0.0016567210431461612 0.00033401830490523333 0.0036464872708893386 0.00068708231161429512
leaf_weight=13634 820544 34 151 22 34 30 28 23 1052850 23 36825 155 21 383 4474 828 6136 27 83 29 184 29 225 38 295 49 103 24 40 115
leaf_count=13634 820544 34 151 22 34 30 28 23 1052850 23 36825 155 21 383 4474 828 6136 27 83 29 184 29 225 38 295 49 103 24 40 115
internal_value=0 -9.41015e-05 0.000520503 0.00124405 0.00173812 0.00073946 0.00191614 0.00377982 6.82762e-07 9.49409e-06 7.94272e-05 0.000235737 -0.00116505 2.53269e-05 0.000255147 0.000250312 0.000333015 0.000836313 0.000675783 0.00184922 0.00248035 0.00437277 0.000245168 -0.000383161 0.000293608 -0.00120566 0.000103915 0.00269679 0.000305793 0.0014508
internal_weight=0 13956 322 171 137 92 58 45 1.92348e+06 870630 50086 12878 176 37208 12702 12679 8102 1204 1177 349 266 82 6898 607 333 274 4577 53 6291 155
internal_count=1937436 13956 322 171 137 92 58 45 1923480 870630 50086 12878 176 37208 12702 12679 8102 1204 1177 349 266 82 6898 607 333 274 4577 53 6291 155
is_linear=0
shrinkage=0.1


Tree=18
num_leaves=31
num_cat=0
split_feature=4 1 4 11 10 3 6 17 17 5 8 14 5 17 11 8 1 17 10 1 0 6 4 1 0 12 3 1 1 2
split_gain=0.0121487 0.0132288 0.0129497 0.0131935 0.0201369 0.0242672 0.0292875 0.0173621 0.0172132 0.0169981 0.0161663 0.016963 0.0183339 0.0306045 0.0266661 0.026253 0.0217394 0.0163318 0.015936 0.0217949 0.0262412 0.0193511 0.0347068 0.0171526 0.0230465 0.0222132 0.0265606 0.021263 0.0588183 0.0195751
threshold=7103.5000000000009 13012.500000000002 3418.0000000000005 693.26067000000012 861.06875000000014 457.30000000000007 461.13000000000005 -0.51540320406126328 0.4480328126681401 356209920.00000006 765.32500000000016 7387812.5000000009 3037565400.0000005 0.2265503010142921 652.88555000000008 1782.825 372.15000000000003 1.4565627563576704 903.34165000000019 619.90000000000009 671.35000000000014 699.70000000000016 6873.0000000000009 674.20000000000016 634.50000000000011 1010.9975800000001 637.10000000000014 573.40000000000009 521.05000000000007 726.10000000000014
decision_type=2 2 2 10 2 2 2 10 10 2 2 2 2 10 10 2 2 10 2 2 2 2 2 2 2 10 2 2 2 2
left_child=1 2 -1 4 -4 6 9 -5 -9 -6 -7 12 17 16 15 -15 -14 18 19 -12 -21 22 23 24 27 -26 -27 28 -20 -25
right_child=-2 -3 3 7 5 10 -8 8 -10 -11 11 -13 13 14 -16 -17 -18 -19 21 20 -22 -23 -24 29 25 26 -28 -29 -30 -31
leaf_value=-7.8961860944660888e-06 -1.4513853010195491e-05 -5.1210660826684483e-05 3.0834882137624445e-05 0.00029130153249113923 0.0012844755724515944 0.00031699627505984816 0.0037188140403789783 -4.6142857082267164e-05 1.0841442085985763e-05 -0.0020617367816157641 0.0022747946359838052 0.0014942618785426021 0.0027970841707428921 -0.0042618531095622867 0.00074801107499903696 -0.00016370053000917492 -0.00039701168554816642 0.00065216003049090943 -0.0001946938150054352 -0.0032811455852471486 -0.000515415228539751 -4.3859407495318707e-06 -0.0030884234240068551 -0.001055077147873071 0.00058846450224518784 0.004736491219286109 0.0012022788457043871 -0.00047396742331955622 0.0062377617650088814 0.0014953211938240091
leaf_weight=462483 444427 41701 127239 2154 63 3953 42 56805 793299 20 24 80 24 54 24 22 190 445 44 39 285 3618 23 78 50 50 37 93 21 49
leaf_count=462483 444427 41701 127239 2154 63 3953 42 56805 793299 20 24 80 24 54 24 22 190 445 44 39 285 3618 23 78 50 50 37 93 21 49
internal_value=0 4.32037e-06 5.91596e-06 1.2376e-05 4.12319e-05 0.000183053 0.00156702 7.75214e-06 7.03368e-06 0.000478159 0.000164255 4.92476e-05 2.68876e-05 -0.000713667 -0.00215789 -0.00307555 -3.87953e-05 7.47736e-05 1.65244e-05 -0.00063294 -0.000848327 7.21517e-05 0.000694428 0.000900603 0.00131891 0.00226812 0.00323344 0.00049587 0.00188348 -7.10652e-05
internal_weight=0 1.49301e+06 1.45131e+06 988825 136567 9328 125 852258 850104 83 9203 5250 5170 314 100 76 214 4856 4411 348 324 4063 445 422 295 137 87 158 65 127
internal_count=1937436 1493009 1451308 988825 136567 9328 125 852258 850104 83 9203 5250 5170 314 100 76 214 4856 4411 348 324 4063 445 422 295 137 87 158 65 127
is_linear=0
shrinkage=0.1


Tree=19
num_leaves=31
num_cat=0
split_feature=5 13 5 11 11 4 4 17 3 9 0 17 11 4 17 17 13 17 8 11 3 2 0 7 10 9 10 12 8 6
split_gain=0.0121249 0.0113635 0.0108815 0.0179292 0.0213195 0.0149857 0.0215344 0.0136601 0.0120115 0.0118164 0.0108885 0.0177337 0.0102506 0.00963202 0.00914473 0.00890477 0.0138242 0.0185058 0.0140191 0.0160732 0.0190077 0.0172183 0.0152195 0.0284514 0.0176258 0.026458 0.0216674 0.0145452 0.0144699 0.020596
threshold=30314100.000000004 2.5000000000000004 11153273500.000002 1686.0547000000004 2311.4010000000003 4368.5000000000009 3453.0000000000005 3.7851955746644301 3316.5000000000005 2254.5250000000001 234.50000000000003 0.25890329755165065 673.49557000000016 8159.5000000000009 1.309685045374819 0.18646556658951244 4.5000000000000009 -1.0000000180025095e-35 354.12500000000006 122.96485200000002 289.50000000000006 704.50000000000011 832.35000000000014 851.05000000000007 1778.0500000000004 1663.8417000000002 1463.2749500000002 399.08649000000008 911.82500000000016 710.50000000000011
decision_type=2 2 2 10 10 2 2 10 2 2 2 8 10 2 10 10 2 10 2 10 2 2 2 2 2 2 2 10 2 2
left_child=-1 2 10 7 9 6 -6 12 -7 -5 11 -2 -4 15 -13 16 17 -3 19 20 -18 -22 23 24 26 -26 28 -21 -20 -30
right_child=1 13 3 4 5 8 -8 -9 -10 -11 -12 14 -14 -15 -16 -17 18 -19 22 27 21 -23 -24 -25 25 -27 -28 -29 29 -31
leaf_value=1.6830516809874149e-05 0.0030031435827603909 -0.0001282064575769809 0.0017475566034027862 0.0012106875800305889 -7.0874746888875968e-05 0.0015501819236818941 0.003412584200365624 -0.0030737598706036809 -0.00042249396614646982 0.0045653415483511281 -0.00013520216656132366 -0.0002525392102994741 -0.00080358550729879574 -3.6720806196990941e-05 0.001392854928963061 -2.0694568777467765e-07 -0.0026063362598652022 0.00028723957772133264 -0.00030994799493103744 0.00076473411999102567 0.0029240350843544797 -0.00044352359394029661 -7.5323982401770675e-05 -0.0013216844166587221 0.0039569931293954143 0.00017130883734353122 -0.0023680972106450678 0.0032184089608823085 0.0033394801913975525 0.00010462934539342921
leaf_weight=350583 27 1956 21 21 35 39 36 20 148 21 10791 114 63 80381 48 1471406 25 2373 1623 78 22 49 16993 268 24 80 49 35 26 81
leaf_count=350583 27 1956 21 21 35 39 36 20 148 21 10791 114 63 80381 48 1471406 25 2373 1623 78 22 49 16993 268 24 80 49 35 26 81
internal_value=0 -3.71836e-06 -0.000103269 0.000406422 0.000798657 0.000458529 0.00169539 -0.000725023 -1.10803e-05 0.00288801 -0.000122023 0.000630436 -0.0001658 -2.99903e-06 0.000234985 -1.18603e-06 -6.20185e-05 9.95259e-05 -9.81537e-05 0.000716418 -0.000235024 0.000599945 -0.000107047 -0.000357657 -0.000220451 0.00104493 -0.000294424 0.00152472 -0.00023569 0.000890668
internal_weight=0 1.58685e+06 11384 404 300 258 71 104 187 42 10980 189 84 1.57547e+06 162 1.49509e+06 23682 4329 19353 209 96 71 19144 2151 1883 104 1779 113 1730 107
internal_count=1937436 1586853 11384 404 300 258 71 104 187 42 10980 189 84 1575469 162 1495088 23682 4329 19353 209 96 71 19144 2151 1883 104 1779 113 1730 107
is_linear=0
shrinkage=0.1


Tree=20
num_leaves=31
num_cat=0
split_feature=3 10 13 17 15 3 14 14 11 9 14 6 16 9 4 17 17 15 12 5 10 17 5 14 2 4 15 11 12 14
split_gain=0.010204 0.0483595 0.028677 0.0258797 0.0251113 0.0184055 0.0183642 0.0149601 0.0169299 0.0197854 0.0130525 0.0246938 0.0183282 0.0110019 0.0150965 0.0229787 0.0213954 0.0126093 0.0138438 0.0204121 0.0109713 0.0127085 0.0104971 0.0103315 0.00989476 0.012738 0.0441361 0.0144328 0.0126615 0.0124607
threshold=331.05000000000007 430.62500000000006 4.5000000000000009 0.2265503010142921 44802.543500000007 230.50000000000003 1008870.8000000002 105345.83200000001 307.63652000000008 524.54165500000011 757341.65000000014 335.7000000000001 472704.31000000006 719.79997500000013 3793.0000000000005 1.2157785542694912 1.4565627563576704 51337.471500000007 418.61813000000001 174030700.00000003 540.32559000000015 0.43815651550259299 91534915.000000015 365075.00000000006 297.10000000000008 6319.0000000000009 113947.01000000002 267.70485000000002 339.74540000000007 514370.83000000002
decision_type=2 2 2 10 10 2 2 2 10 2 2 2 10 2 2 10 10 10 10 2 2 10 2 2 2 2 10 10 10 2
left_child=1 -1 3 -3 -5 6 -4 -7 13 20 11 23 -12 14 15 17 -17 -9 -19 22 21 -10 -20 -6 -16 26 -26 -27 -29 -28
right_child=-2 2 5 4 10 7 -8 8 9 -11 12 -13 -14 -15 24 16 -18 18 19 -21 -22 -23 -24 -25 25 27 29 28 -30 -31
leaf_value=2.7280835565333554e-05 -1.2247401246558938e-06 0.0035290468915331144 0.004558112699721408 0.0033248327702331618 -0.00032580765743178372 0.0014797220245292501 0.00032409229024779054 0.0013374072427933033 -0.0016579769753401969 -0.0036730774980969732 0.0038918435382914725 -0.0028422941850429332 0.00040625064381553488 0.0026536433868819759 0.0015042188266677628 0.0038879393908681109 -0.00052688210881093433 -0.00028611019486561421 -0.0019885458890348674 -0.00039340217451517211 0.0016862576523714739 0.00046548717158764388 -0.0052284745988436044 0.0023521173270419238 0.0045241200530360785 -0.00090707856764642646 -0.0018107390507463028 -0.0015304999837938409 0.00083365476440865841 0.00075445062872912631
leaf_weight=52219 1883785 54 21 39 34 104 20 26 63 20 22 27 48 21 103 23 21 110 20 39 23 51 20 25 31 107 22 26 176 136
leaf_count=52219 1883785 54 21 39 34 104 20 26 63 20 22 27 48 21 103 23 21 110 20 39 23 51 20 25 31 107 22 26 176 136
internal_value=0 4.30029e-05 0.00061632 0.00159173 0.00105524 0.000411014 0.00249274 0.000336276 0.000221711 -0.00073497 0.000487847 -0.000337401 0.00150172 0.000392198 0.000336976 -0.000301253 0.00178087 -0.000727361 -0.0010114 -0.0020213 -0.000306049 -0.000708006 -0.00360851 0.000808906 0.00061202 0.000427489 0.00107416 3.19509e-05 0.000529358 0.000397272
internal_weight=0 53651 1432 249 195 1183 41 1142 1038 157 156 86 70 881 860 259 44 215 189 79 137 114 40 59 601 498 189 309 202 158
internal_count=1937436 53651 1432 249 195 1183 41 1142 1038 157 156 86 70 881 860 259 44 215 189 79 137 114 40 59 601 498 189 309 202 158
is_linear=0
shrinkage=0.1


Tree=21
num_leaves=31
num_cat=0
split_feature=1 2 17 17 16 4 4 17 12 3 7 17 3 4 5 13 3 12 0 8 5 4 17 5 5 5 16 6 9 10
split_gain=0.0100463 0.0154312 0.0144054 0.0171942 0.0120781 0.0104379 0.0106778 0.013604 0.0409489 0.0646607 0.0160315 0.0157289 0.0190248 0.0228334 0.0262101 0.0176224 0.0162721 0.0520087 0.0288747 0.0339382 0.0112569 0.0106814 0.0189727 0.0240571 0.0163989 0.0164949 0.0221156 0.0114204 0.0137982 0.0106269
threshold=7611.0000000000009 8111.5000000000009 -0.51540320406126328 0.90166055182066918 23612.208000000002 7103.5000000000009 3418.0000000000005 -0.51540320406126328 560.68011500000011 457.30000000000007 537.35000000000002 0.4480328126681401 139.50000000000003 6603.0000000000009 821457800.00000012 4.5000000000000009 457.30000000000007 659.87895000000015 448.20000000000005 566.04000000000008 682858350.00000012 7047.5000000000009 1.2029091293769176 1555308050.0000002 1037086400.0000001 544514800.00000012 1160377.0000000002 3820.3000000000006 3994.7916500000006 496.91249000000005
decision_type=2 2 10 10 10 2 2 10 10 2 2 10 2 2 2 2 2 10 2 2 2 2 10 2 2 2 10 2 2 2
left_child=5 2 4 -4 -2 6 -1 8 9 -8 20 12 13 -9 -15 16 17 29 19 -19 -10 -13 23 24 25 26 27 -23 -29 -14
right_child=1 -3 3 -5 -6 -7 7 11 10 -11 -12 21 15 14 -16 -17 -18 18 -20 -21 -22 22 -24 -25 -26 -27 -28 28 -30 -31
leaf_value=-6.7756207543182842e-06 0.00027524493988205842 5.4067228829277468e-06 1.2688527811709532e-06 -0.00012086327933254269 -0.00057102902049840996 -1.2027223044537784e-05 0.00017800539322761875 0.0037914229127906126 -0.00029696584609337153 0.0072762401818874337 0.00018787657910692844 1.3722120907639307e-05 4.1823618728943374e-05 -0.00048223116498454199 0.0035594783490523699 -6.3100929283347107e-05 3.6191161053512865e-05 0.0035895552195142955 0.0051418821694272938 -0.0015161766589659714 -0.0034799255509278741 1.3035287336415474e-05 0.00035306881191487924 -0.0030274551057328401 0.0020138886626582682 -0.000856376814193057 -0.0027985957347684436 0.0024816675913254069 0.00039949358530154194 0.00098325287002832607
leaf_weight=454105 205 55473 21714 24571 951 425194 33 27 25 21 3523 877436 614 68 21 54021 12651 30 33 23 20 3258 2579 26 41 211 27 35 351 149
leaf_count=454105 205 55473 21714 24571 951 425194 33 27 25 21 3523 877436 614 68 21 54021 12651 30 33 23 20 3258 2579 26 41 211 27 35 351 149
internal_value=0 -3.04028e-05 -7.22751e-05 -6.35666e-05 -0.000420954 1.70555e-06 5.84873e-06 1.18502e-05 0.000205285 0.00293843 0.00016392 1.1114e-05 -3.5364e-05 0.00124419 0.000471431 -3.75622e-05 6.46323e-05 0.000488435 0.00281973 0.00137386 -0.00171161 1.46703e-05 0.000142113 4.34226e-06 2.44357e-05 3.42401e-06 5.28432e-05 7.39708e-05 0.000588292 0.000225668
internal_weight=0 102914 47441 46285 1156 1.83452e+06 1.40933e+06 955223 3622 54 3568 951601 67637 116 89 67521 13500 849 86 53 45 883964 6528 3949 3923 3882 3671 3644 386 763
internal_count=1937436 102914 47441 46285 1156 1834522 1409328 955223 3622 54 3568 951601 67637 116 89 67521 13500 849 86 53 45 883964 6528 3949 3923 3882 3671 3644 386 763
is_linear=0
shrinkage=0.1


Tree=22
num_leaves=31
num_cat=0
split_feature=5 13 5 4 5 16 12 5 4 17 17 0 17 14 4 17 1 12 1 0 12 3 12 6 9 17 13 3 9 14
split_gain=0.00992412 0.00941077 0.00883108 0.0143526 0.0168204 0.0308949 0.0259062 0.0127105 0.0203721 0.00842959 0.0106718 0.0076404 0.0149228 0.00819872 0.00715034 0.00881754 0.0145634 0.0233315 0.0185914 0.020394 0.035519 0.0112921 0.0234113 0.0145456 0.0176292 0.00727613 0.0478481 0.0197414 0.0183537 0.0198629
threshold=30314100.000000004 2.5000000000000004 12744554000.000002 6501.5000000000009 15146084000.000002 1076403.8000000003 6682.4373000000005 18898082000.000004 4456.5000000000009 1.0000000180025095e-35 2.7940839951541263 234.50000000000003 0.25890329755165065 527712.50000000012 8136.5000000000009 0.18646556658951244 1738.2500000000002 1917.8297500000001 1155.1500000000003 1451.2500000000002 2344.9398000000006 1188.5000000000002 1420.2484500000003 788.90000000000009 922.12500000000011 0.34629923874119578 4.5000000000000009 230.50000000000003 355.40833000000003 9713267.0000000019
decision_type=2 2 2 2 2 10 10 2 2 10 10 2 10 2 2 10 2 10 2 2 10 2 10 2 2 10 2 2 2 2
left_child=-1 2 11 4 5 -4 7 -6 -9 -5 -11 12 -2 -14 25 16 17 21 -19 -20 -21 22 23 24 -16 26 -3 28 29 -28
right_child=1 14 3 9 6 -7 -8 8 -10 10 -12 -13 13 -15 15 -17 -18 18 19 20 -22 -23 -24 -25 -26 -27 27 -29 -30 -31
leaf_value=1.5226675802911827e-05 0.0026971866751814054 0.00015177010105629557 0.0006273467531975578 -0.0018541814247717931 -0.0019149520594903546 0.005505729471319467 0.0028969706440693699 -0.0018139454347658017 0.0023063436898935054 0.00056227334537955662 -0.0016880926891678462 -0.00011997203840951122 0.0014452882182683282 -0.00023204721559304744 0.00032422546876007034 -3.4241896538209286e-05 -5.6722768539002176e-05 9.1067541830448646e-05 0.0050054780379666583 -0.00013612609909614549 0.0040191332935743656 -0.00089077372740575811 0.0026387990277726204 -0.00065859429499088207 0.0028948118960640083 3.8650758049979173e-07 0.0002491389716098807 -8.3390904774250556e-05 0.0033384508608529963 0.0031822066204622388
leaf_weight=350583 27 11139 34 28 37 21 30 21 28 96 27 10872 38 125 241 88729 930 54 23 48 36 77 43 136 30 1425276 302 48356 24 25
leaf_count=350583 27 11139 34 28 37 21 30 21 28 96 27 10872 38 125 241 88729 930 54 23 48 36 77 43 136 30 1425276 302 48356 24 25
internal_value=0 -3.36403e-06 -9.39585e-05 0.000422278 0.00104965 0.00249 0.00036673 -0.000515912 0.000540505 -0.000288194 6.82906e-05 -0.000108985 0.000519679 0.000158988 -2.70941e-06 -3.00232e-05 0.000201322 0.000550132 0.00160372 0.00236711 0.0016447 0.000228259 0.000419738 0.000185292 0.000608792 -1.04778e-06 -3.52065e-05 -7.79669e-05 0.000669282 0.00047338
internal_weight=0 1.58685e+06 11384 322 171 55 116 86 49 151 123 11062 190 163 1.57547e+06 90347 1618 688 161 107 84 527 450 407 271 1.48512e+06 59846 48707 351 327
internal_count=1937436 1586853 11384 322 171 55 116 86 49 151 123 11062 190 163 1575469 90347 1618 688 161 107 84 527 450 407 271 1485122 59846 48707 351 327
is_linear=0
shrinkage=0.1


Tree=23
num_leaves=31
num_cat=0
split_feature=1 12 16 5 5 17 4 5 6 17 17 10 5 4 15 17 15 1 5 2 15 13 10 1 17 15 17 11 14 17
split_gain=0.00929178 0.0189284 0.0136832 0.0125762 0.0113425 0.0147667 0.00803539 0.00879772 0.0128293 0.0329365 0.0411959 0.0172743 0.0597598 0.0133837 0.0123832 0.0114352 0.0145806 0.00907853 0.0323417 0.0377823 0.0123463 0.0151201 0.0101598 0.0338081 0.0154322 0.00972113 0.00881907 0.0161683 0.0463367 0.0110045
threshold=176.35000000000005 6491.6168500000013 26090.727500000005 5047380000.000001 8810872500.0000019 1.3243502619702239 8323.5000000000018 340604900.00000006 193.10000000000002 3.2174919484702103 4.3613021916493375 194.04583500000004 3037565400.0000005 6625.5000000000009 450605.95500000002 2.9077935222672071 3830855.2500000005 585.15000000000009 1668145200.0000002 196.50000000000003 3830855.2500000005 4.5000000000000009 140.59210500000003 902.25000000000011 1.2880509095953392 561807.55000000016 1.1095753970419693 122.96485200000002 9713267.0000000019 0.34629923874119578
decision_type=2 10 10 2 2 10 2 2 2 10 10 2 2 2 10 8 10 2 2 2 10 2 2 2 10 10 10 10 2 10
left_child=1 2 -1 -4 5 -5 7 15 9 17 -11 12 14 -14 -10 -2 -17 18 20 -20 25 -22 -19 24 -24 -9 29 28 -28 -13
right_child=6 -3 3 4 -6 -7 -8 8 11 10 -12 26 13 -15 -16 16 -18 22 19 -21 21 -23 23 -25 -26 -27 27 -29 -30 -31
leaf_value=0.00041299369271093338 4.2372005874541125e-06 0.0023079157700857124 5.3323763491571042e-05 -0.0034517714719948991 0.00052467498417872076 -0.00014779619438437901 -4.6621422716142058e-05 0.0010830733545815511 -0.0022874195906167319 0.0056710991093423223 -0.0003368475158432765 -5.1716991391707271e-05 -0.0048070022995982849 -0.0017016923125914259 -0.00013884694058796413 7.0138267303492354e-05 0.0027062249464160277 -0.00032293499687462666 0.0051449157779232691 2.8148992202693117e-05 -0.00046506577151982737 0.0020630449201722726 0.0012426764990336129 -2.3209038148479521e-05 0.0045349790986316902 -0.00030448544250034237 -0.0013866988412136662 -2.0256889035137904e-05 0.0040186003282932301 7.4709370100466894e-06
leaf_weight=1097 1131757 38 13584 31 26 24 37217 62 28 25 21 34547 35 23 639 25188 21 443 31 27 36 69 35 320 24 272 29 345517 35 346235
leaf_count=1097 1131757 38 13584 31 26 24 37217 62 28 25 21 34547 35 23 639 25188 21 443 31 27 36 69 35 320 24 272 29 345517 35 346235
internal_value=0 7.89321e-05 7.31943e-05 4.59158e-05 -0.00119643 -0.00201004 -6.07603e-07 3.00681e-07 -8.30808e-06 0.000297978 0.00292834 -8.88309e-06 -0.000496765 -0.00357559 -0.000229042 5.72096e-06 7.23342e-05 0.000206245 0.000543643 0.00276297 0.000250429 0.00119626 2.24584e-06 0.000382338 0.00258192 -4.69146e-05 -8.39612e-06 -1.99625e-05 0.00156932 2.10103e-06
internal_weight=0 14800 14762 13665 81 55 1.92264e+06 1.88542e+06 728453 1365 46 727088 725 58 667 1.15697e+06 25209 1319 497 58 439 105 822 379 59 334 726363 345581 64 380782
internal_count=1937436 14800 14762 13665 81 55 1922636 1885419 728453 1365 46 727088 725 58 667 1156966 25209 1319 497 58 439 105 822 379 59 334 726363 345581 64 380782
is_linear=0
shrinkage=0.1


Tree=24
num_leaves=31
num_cat=0
split_feature=1 2 17 17 15 4 11 14 9 17 14 16 12 13 16 14 4 5 12 10 12 11 10 17 11 12 17 9 10 5
split_gain=0.00775863 0.0124916 0.0112266 0.0139437 0.0110109 0.00949443 0.0207823 0.0233827 0.0400477 0.0117785 0.00853261 0.00850565 0.0175822 0.00768788 0.0094779 0.0189833 0.0149005 0.00858048 0.0191511 0.00877931 0.0125129 0.0078072 0.0273509 0.0346306 0.047711 0.0361845 0.0824686 0.0232724 0.0490151 0.0285145
threshold=7611.0000000000009 8111.5000000000009 -0.51540320406126328 0.90166055182066918 338192.62000000005 4632.0000000000009 4792.4142500000007 190533.33500000005 6325.5832500000006 3.4571777855396442 713929.15000000014 1076403.8000000003 12101.240500000002 3.5000000000000004 6809267.2500000009 9713267.0000000019 5019.5000000000009 11153273500.000002 8697.6025000000027 934.86457000000007 890.31915500000014 494.27483000000001 602.87720000000002 0.53758824618253997 211.85053500000004 944.37796500000013 0.69022304076651919 719.79997500000013 641.13615000000016 5047380000.000001
decision_type=2 2 10 10 10 2 10 2 2 10 2 10 10 2 10 2 2 2 10 2 10 10 2 10 10 10 10 2 2 2
left_child=13 2 4 -4 -2 6 7 -3 9 -9 -6 -8 -13 14 17 16 -16 -1 19 20 -19 22 -15 -24 -25 -26 -27 28 -28 -29
right_child=1 5 3 -5 10 -7 11 8 -10 -11 -12 12 -14 21 15 -17 -18 18 -20 -21 -22 -23 23 24 25 26 27 29 -30 -31
leaf_value=-3.714631282082856e-05 -0.00024538457319390691 0.00038913380340687342 1.6827193803776126e-06 -0.00010830097254633318 -0.00206552203868699 3.7879575981728757e-05 -3.3433120844562516e-05 -0.0017269079889436917 -0.0048322111923646723 0.00095017767183620632 -0.00058101854815418544 -0.00012189078308892931 -0.0026877109140686292 1.2484338043735095e-05 -0.0043916819352571943 -0.00021521597087013954 -0.00071120498485635673 -8.31884147342423e-05 0.0022600319944063407 0.00023383334485877353 -0.0028840911585244944 7.0324558741475655e-07 2.4701197313267619e-05 -0.0042614602991803132 0.00034343959664915008 0.007186687834716092 0.00023205739696119986 0.0011469906897441341 0.0058976782682853253 -0.0020799968817491869
leaf_weight=57339 989 61 21714 24571 61 34401 20774 42 35 27 106 96 37 133431 22 166 22 58 45 1036 22 1631412 6332 22 4392 24 37 98 26 38
leaf_count=57339 989 61 21714 24571 61 34401 20774 42 35 27 106 96 37 133431 22 166 22 58 45 1036 22 1631412 6332 22 4392 24 37 98 26 38
internal_value=0 -2.6718e-05 -6.43915e-05 -5.67036e-05 -0.000372206 5.50075e-06 -4.73592e-05 -0.00116525 -0.00207695 -0.000679353 -0.00112326 -3.85367e-05 -0.00083569 1.49884e-06 -3.4104e-05 -0.000704711 -0.00255144 -3.16967e-05 0.000237449 0.000155893 -0.000853437 2.6759e-06 2.49627e-05 0.000176754 0.000384388 0.000406535 0.0016492 0.000981362 0.00257025 0.000245332
internal_weight=0 102914 47441 46285 1156 55473 21072 165 104 69 167 20907 133 1.83452e+06 58710 210 44 58500 1161 1116 80 1.77581e+06 144400 10969 4637 4615 223 199 63 136
internal_count=1937436 102914 47441 46285 1156 55473 21072 165 104 69 167 20907 133 1834522 58710 210 44 58500 1161 1116 80 1775812 144400 10969 4637 4615 223 199 63 136
is_linear=0
shrinkage=0.1


Tree=25
num_leaves=31
num_cat=0
split_feature=5 13 5 4 4 15 2 14 14 2 0 11 8 15 0 14 5 0 0 14 11 1 15 17 15 12 13 13 11 2
split_gain=0.0072095 0.00692303 0.00694932 0.00766021 0.0141092 0.0218539 0.0164928 0.0221346 0.00923961 0.0153228 0.027402 0.0102329 0.0103393 0.00704644 0.00694739 0.0117358 0.00664688 0.0194571 0.00738831 0.0438089 0.0445974 0.0120995 0.0137815 0.00771441 0.0064716 0.00634207 0.00746902 0.00552567 0.00559313 0.014889
threshold=30314100.000000004 2.5000000000000004 9846948500.0000019 4526.5000000000009 3418.0000000000005 221905.77500000002 7461.5000000000009 4756408.2500000009 5360495.7500000009 2358.2500000000005 3297.5000000000005 3639.3848000000003 3560.2000000000003 1007573.5250000001 234.50000000000003 420370.83000000002 8013640200.000001 6690.5000000000009 6331.5000000000009 601475.00000000012 6469.0163000000011 5142.0000000000009 19376.598000000002 -1.0000000180025095e-35 2022678.6500000001 208.08603500000001 1.0000000180025095e-35 1.0000000180025095e-35 1660.0054000000002 1825.2500000000002
decision_type=2 2 2 2 2 10 2 2 2 2 2 10 2 10 2 2 2 2 2 2 10 2 10 10 10 10 2 2 10 2
left_child=27 2 14 4 13 -6 7 -7 11 -10 -11 12 -5 -4 15 -2 18 -18 -16 21 -21 22 -20 -23 -9 -17 -27 -1 29 -29
right_child=1 -3 3 8 5 6 -8 24 9 10 -12 -13 -14 -15 16 25 17 -19 19 20 -22 23 -24 -25 -26 26 -28 28 -30 -31
leaf_value=0.00028179538720373017 0.0024770545018747308 -2.3057914356269598e-06 0.00037522950617130846 -0.00066414303062054772 -0.0010176070695160889 0.0049509242008408082 -0.00023268276515106361 0.0028256607775256275 -0.00021321779749063679 0.0048707912329700774 -5.2642734506382401e-05 0.00018994869924983729 -0.0033067855672561566 -0.0020131295923853203 -0.0001147589674604914 -0.00026194140834938319 -0.00014386370864182633 -0.0027945603667629058 -0.00052435916317066314 0.0066620620759204026 0.0009021937108184098 -0.0018786834965736018 0.0025017968825790486 -0.00020768443347888956 0.00047043508166098039 0.00012255111291511531 0.002487246076237749 1.9586057341413378e-05 -4.0408070364831417e-06 0.0002893741108759206
leaf_weight=763 26 1575469 30 57 30 29 24 20 78 20 26 98 20 21 10151 107 120 36 27 20 41 31 34 254 28 34 22 217657 130098 2065
leaf_count=763 26 1575469 30 57 30 29 24 20 78 20 26 98 20 21 10151 107 120 36 27 20 41 31 34 254 28 34 22 217657 130098 2065
internal_value=0 -2.86726e-06 -8.05702e-05 0.000291414 0.000802916 0.00135229 0.00205622 0.00276964 -1.99357e-05 0.000640453 0.00208798 -0.000487868 -0.00135054 -0.000608212 -9.69807e-05 0.000504031 -0.000107583 -0.000755563 -9.80086e-05 0.000319763 0.00279068 -0.00011586 0.00116235 -0.000389442 0.00145178 0.000189315 0.00105154 1.29781e-05 1.23918e-05 2.21216e-05
internal_weight=0 1.58685e+06 11384 481 182 131 101 77 299 124 46 175 77 51 10903 189 10714 156 10558 407 61 346 61 285 48 163 56 350583 349820 219722
internal_count=1937436 1586853 11384 481 182 131 101 77 299 124 46 175 77 51 10903 189 10714 156 10558 407 61 346 61 285 48 163 56 350583 349820 219722
is_linear=0
shrinkage=0.1


Tree=26
num_leaves=31
num_cat=0
split_feature=1 12 16 14 15 4 5 9 11 15 16 2 12 17 9 17 14 5 10 0 5 17 16 9 12 17 0 12 3 10
split_gain=0.00708048 0.0153228 0.0115373 0.0154201 0.0116542 0.0148574 0.0102217 0.0100755 0.0257351 0.00901626 0.0258047 0.00845466 0.0119746 0.0151305 0.0161079 0.0186967 0.0113991 0.0115413 0.0147222 0.0102482 0.0101365 0.00922583 0.00718614 0.00844922 0.0176048 0.0173008 0.00707372 0.00686789 0.0161671 0.0134544
threshold=176.35000000000005 6491.6168500000013 18592.596500000003 33045.83400000001 13144.918500000002 2673.0000000000005 5047380000.000001 565.27498000000014 422.57703000000009 10704.529000000002 61766.891500000005 3260.5000000000005 2665.2386500000007 -0.51540320406126328 1724.5000000000002 1.4021998341052053 1084020.9000000001 89609047.000000015 2134.5583500000007 1831.2500000000002 264642295.00000003 1.4860193043057985 9139.5975000000017 871.68335000000013 3117.1758000000004 0.60260186647754754 1684.5000000000002 1602.7228500000003 1454.5000000000002 1752.3416500000003
decision_type=2 10 10 2 10 2 2 2 10 10 10 2 10 10 2 10 2 2 2 2 2 10 10 2 10 10 2 10 2 2
left_child=1 2 3 22 -5 -6 9 -8 -9 10 -4 12 13 -11 19 16 17 -16 -19 27 -20 -21 23 -1 25 -25 -22 -15 -29 -30
right_child=-2 -3 6 4 5 -7 7 8 -10 11 -12 -13 -14 14 15 -17 -18 18 20 21 26 -23 -24 24 -26 -27 -28 28 29 -31
leaf_value=0.00018202487935526753 -5.3039543837354185e-07 0.0020743865293058519 0.00028417671139461869 0.0029971844758344534 0.0030726030776277186 0.00035238990157285673 -0.0022334187066194435 0.0025948923313990238 -0.0023614505835046823 0.0024171510640169599 0.0038913122621243414 0.0020963242778088901 -0.0006049925707508531 2.5287748757842793e-05 -5.4110946657601743e-05 -0.00054575759043664111 -0.00079348607035353781 0.0041287243827052107 0.0029218883446135028 -0.003086136535275728 0.0016815541518785029 -4.8731534043326974e-05 -0.00011411685274711611 0.00031403398473533648 -0.00095256527790545738 0.0038207625073161632 2.7256452797345169e-05 0.0015842854475225689 0.00052397326086065735 -0.0014424963730710503
leaf_weight=149 1922636 38 144 33 25 102 39 20 22 27 23 20 283 12876 40 81 25 24 35 20 59 20 305 24 22 34 46 95 120 49
leaf_count=149 1922636 38 144 33 25 102 39 20 22 27 23 20 283 12876 40 81 25 24 35 20 59 20 305 24 22 34 46 95 120 49
internal_value=0 6.89026e-05 6.37401e-05 0.00046177 0.00132291 0.000887865 4.41046e-05 -0.00107602 -1.28729e-06 5.05913e-05 0.000780968 4.17655e-05 3.87879e-05 5.22664e-05 4.75332e-05 0.000760042 0.00122192 0.0014689 0.00184037 3.07746e-05 0.00144808 -0.00156743 0.00020375 0.000627109 0.00145608 0.0023697 0.000956814 3.56398e-05 0.000540536 -4.61866e-05
internal_weight=0 14800 14762 694 160 127 14068 81 42 13987 167 13820 13800 13517 13490 310 229 204 164 13180 140 40 534 229 80 58 105 13140 264 169
internal_count=1937436 14800 14762 694 160 127 14068 81 42 13987 167 13820 13800 13517 13490 310 229 204 164 13180 140 40 534 229 80 58 105 13140 264 169
is_linear=0
shrinkage=0.1


Tree=27
num_leaves=31
num_cat=0
split_feature=5 17 14 16 14 4 16 7 16 14 15 17 17 13 0 4 12 4 4 10 15 4 14 5 8 7 14 11 1 1
split_gain=0.00659819 0.00808625 0.0188925 0.0102553 0.0160214 0.0124173 0.0117313 0.0111913 0.00909898 0.00858201 0.00833392 0.00798628 0.00845284 0.0111785 0.0198933 0.0128448 0.0104265 0.0222744 0.0126367 0.0116487 0.0110988 0.0152358 0.0153019 0.0196587 0.0113978 0.0126415 0.0102174 0.0107109 0.0174792 0.0119169
threshold=380600270.00000006 2.4154217762913421 5360495.7500000009 200590.17500000002 98129.16800000002 8102.0000000000009 224741.93000000002 426.52000000000004 597813.22500000009 208920.83500000005 227881.33000000005 1.1095753970419693 0.34629923874119578 4.5000000000000009 193.50000000000003 2189.0000000000005 9240.340000000002 4504.5000000000009 3546.5000000000005 6253.6875000000009 85943.040000000008 6725.5000000000009 349437.50000000006 3934799750.0000005 5621.3750000000009 5913.1000000000013 1367341.7000000002 307.63652000000008 126.35000000000001 372.15000000000003
decision_type=2 8 2 8 2 2 10 2 10 2 10 8 10 2 2 2 10 2 2 2 10 2 2 2 2 2 2 10 2 2
left_child=1 -1 3 9 6 -6 -5 -7 -8 -3 -9 12 13 14 -2 -16 19 18 -18 -17 24 22 -22 -24 -21 -26 -15 28 -28 -29
right_child=11 2 -4 4 5 7 8 10 -10 -11 -12 -13 -14 26 15 16 17 -19 -20 20 21 -23 23 -25 25 -27 27 29 -30 -31
leaf_value=2.7451251266107489e-06 0.003135487333028833 3.8485136738167814e-05 0.0021894932141039158 0.0034412700793473049 0.00011909793283993232 6.5020980863747282e-06 0.00044059322163876558 0.0031766692079448454 0.0025243657842600863 -0.00013800660103694651 0.0010520034141336509 -1.891095518276687e-05 7.2307317963194955e-06 -3.2261825333742574e-05 0.00055185674596144939 1.6590825761406938e-05 -0.0002545150615333114 0.00021643884931736788 -0.0020471033010764196 0.0015670256669788312 0.00030119887503263145 0.00010945845876805202 0.0050452997209504248 0.0015745996140764215 -0.0026963986609850757 -2.2308893377258856e-05 0.0023946954787595932 -0.00089397648251357824 5.7717679717775666e-05 -0.00018364988487062721
leaf_weight=1182740 21 42109 41 20 4707 55 108 30 26 2948 48 334718 335721 17850 484 6383 64 197 102 33 42 92 24 51 22 90 33 244 1061 7372
leaf_count=1182740 21 42109 41 20 4707 55 108 30 26 2948 48 334718 335721 17850 484 6383 64 197 102 33 42 92 24 51 22 90 33 244 1061 7372
internal_value=0 4.41184e-06 4.37652e-05 4.20075e-05 0.000177972 0.000146022 0.0011821 0.0010989 0.000844907 2.69376e-05 0.00186918 -7.7193e-06 2.40827e-06 -4.49795e-05 6.19176e-05 5.3407e-05 1.94281e-05 -0.000502631 -0.00135598 4.75575e-05 0.00060592 0.00107231 0.00182942 0.00268522 -6.63222e-05 -0.000547577 -7.55876e-05 -0.000164378 0.000128212 -0.000206407
internal_weight=0 1.23283e+06 50092 50051 4994 4840 154 133 134 45057 78 704604 369886 34165 7605 7584 7100 363 166 6737 354 209 117 75 145 112 26560 8710 1094 7616
internal_count=1937436 1232832 50092 50051 4994 4840 154 133 134 45057 78 704604 369886 34165 7605 7584 7100 363 166 6737 354 209 117 75 145 112 26560 8710 1094 7616
is_linear=0
shrinkage=0.1


Tree=28
num_leaves=31
num_cat=0
split_feature=4 4 11 10 17 2 0 16 17 12 8 14 13 5 5 5 10 1 10 1 4 1 5 2 6 17 17 3 14 4
split_gain=0.00658705 0.00880595 0.00912418 0.0295077 0.0200707 0.0173788 0.0163907 0.0147153 0.0138366 0.0434128 0.0282591 0.0275922 0.0191256 0.0295045 0.0163734 0.0220144 0.0174155 0.0135579 0.0326998 0.017703 0.0146415 0.0125916 0.0156356 0.0120103 0.0152184 0.0111121 0.0108216 0.0159473 0.0156082 0.0141785
threshold=7103.5000000000009 3418.0000000000005 833.46350500000005 1008.3750000000001 0.45804782465856292 762.25000000000011 729.35000000000014 802490.30000000016 3.0407777832232954 1602.7228500000003 1223.2750000000003 430587.50000000006 4.5000000000000009 1726503050.0000002 1410046000.0000002 845219180.00000012 1070.1067 354.60000000000008 1451.2416500000002 315.25000000000006 6541.5000000000009 1834.2000000000003 573233830.00000012 680.25000000000011 731.30000000000007 0.64307006788214816 1.2280873753009978 810.10000000000014 248487.50000000003 3664.0000000000005
decision_type=2 2 10 2 10 2 2 10 10 10 2 2 2 2 2 2 2 2 2 2 2 2 2 2 2 10 10 2 2 2
left_child=1 -1 3 -3 -5 7 -7 17 9 26 11 -11 13 -10 15 -14 -16 19 20 -6 -19 22 25 -22 -25 -12 28 -28 -8 -29
right_child=-2 2 -4 4 5 6 8 -9 12 10 21 -13 14 -15 16 -17 -18 18 -20 -21 23 -23 -24 24 -26 -27 27 29 -30 -31
leaf_value=-8.1261183998643738e-06 -1.0687171948071703e-05 1.7755802487657883e-05 3.774525119814995e-06 3.4654766622087227e-05 0.00056768619585825407 -0.0020178553062578431 0.00029509079722146698 -0.00036328666139581267 -4.3576195457717405e-05 0.006526133782145652 -0.00090242802213073121 0.0018297026447694879 -5.6770300665821145e-05 -0.0046285442793741827 0.0037965432243072432 -0.003142354702059594 0.00025001696640780815 0.0015217945244017871 0.0050812742805906707 -0.0026712412014603618 0.0014075313856665161 -0.00059348982814459738 0.0040406076241717012 -0.0012457285419327153 0.0012192291815881617 0.002036189752060079 0.0014856874498997731 -0.00076572037816695945 -0.0001137986790337221 0.00046181516240444788
leaf_weight=471314 444427 185018 824407 5443 108 32 2798 97 32 22 22 29 161 25 20 27 45 253 21 20 64 34 21 67 40 31 141 102 1401 1214
leaf_count=471314 444427 185018 824407 5443 108 32 2798 97 32 22 22 29 161 25 20 27 45 253 21 20 64 34 21 67 40 31 141 102 1401 1214
internal_value=0 3.18127e-06 8.39744e-06 2.77152e-05 0.000177892 0.000292091 0.000239459 0.000775753 0.000251253 0.000285956 0.00191559 0.00385561 -0.00039971 -0.00205453 -2.68852e-05 -0.000499913 0.00134126 0.000968575 0.00122946 6.16038e-05 0.00103868 0.000999468 0.00173137 0.000323903 -0.000324249 0.000816386 0.000240144 0.000474964 0.000158664 0.000366672
internal_weight=0 1.49301e+06 1.0217e+06 197288 12270 6827 6157 670 6125 5815 159 51 310 57 253 188 65 573 445 128 424 108 74 171 107 53 5656 1457 4199 1316
internal_count=1937436 1493009 1021695 197288 12270 6827 6157 670 6125 5815 159 51 310 57 253 188 65 573 445 128 424 108 74 171 107 53 5656 1457 4199 1316
is_linear=0
shrinkage=0.1


Tree=29
num_leaves=31
num_cat=0
split_feature=3 10 13 17 16 1 0 5 3 10 15 14 10 17 4 2 10 16 10 2 16 8 3 12 17 12 11 16 4 9
split_gain=0.0062277 0.0383289 0.0220313 0.0197341 0.0213874 0.013691 0.020579 0.0126914 0.0125028 0.016387 0.0140575 0.0184319 0.0124848 0.0120006 0.0149868 0.0226145 0.0153282 0.0143364 0.0127315 0.0123905 0.0105352 0.0112549 0.0126287 0.00972291 0.00972171 0.00995264 0.00938211 0.0089494 0.00858104 0.00845165
threshold=331.05000000000007 430.62500000000006 4.5000000000000009 0.2265503010142921 38793.242000000006 336.15000000000003 337.50000000000006 6722248500.000001 230.50000000000003 566.70415000000014 129522.17800000001 357029.1700000001 653.82915000000014 1.0411329285857538 4564.0000000000009 341.50000000000006 698.90415000000019 625917.40000000014 578.60415000000012 297.10000000000008 353572.64000000007 354.12500000000006 311.50000000000006 458.14911000000006 0.4480328126681401 399.08649000000008 -1.0000000180025095e-35 895663.87000000011 5370.5000000000009 409.37500000000006
decision_type=2 2 2 10 10 2 2 2 2 2 10 2 2 10 2 2 2 10 2 2 10 2 2 10 10 10 10 10 2 2
left_child=1 26 3 28 -5 7 24 8 9 -4 29 -12 -6 14 16 19 18 -15 23 -16 -21 27 -23 -13 -7 -26 -1 -22 -3 -10
right_child=-2 2 5 4 12 6 -8 -9 10 -11 11 13 -14 17 15 -17 -18 -19 -20 20 21 22 -24 -25 25 -27 -28 -29 -30 -31
leaf_value=-0.0020450561910613694 -9.5680380624696551e-07 0.0015104485320903008 0.0040872341221464539 0.003945052780077926 0.000871908660763013 -0.0027513745781855988 0.0016853314541679409 0.0027992930994672782 0.00028710556456216558 8.7634846568107616e-05 -0.0027236175196974177 -5.0750780188336489e-05 -0.0017838639568071813 0.0025392578178366951 0.0021914689043114779 -0.0023183194806161165 0.0019409327086759732 0.00011148065771392016 -0.0023559083209114093 -0.0012452556370231888 0.0011948545445473148 0.0026872268683897954 1.1198592757613495e-05 -0.0021398844014454102 -0.0016517153855547251 0.001175345272058621 2.0468492097333407e-05 -0.00074468978502230387 0.0040962804052414314 0.0012213349733607654
leaf_weight=22 1883785 21 21 21 154 34 28 23 170 20 23 109 20 43 47 27 20 56 49 33 39 45 29 28 33 20 52197 61 33 225
leaf_count=22 1883785 21 21 21 154 34 28 23 170 20 23 109 20 43 47 27 20 56 49 33 39 45 29 28 33 20 52197 61 33 225
internal_value=0 3.35952e-05 0.000544002 0.00139895 0.000930476 0.000364051 -0.000672671 0.000475683 0.000424541 0.00213621 0.000354642 5.32882e-05 0.000566647 0.000162279 -4.17562e-05 0.000433218 -0.000689658 0.00116597 -0.000972517 0.000725704 0.000392898 0.000703582 0.00163851 -0.000477727 -0.00143157 -0.0005849 1.95983e-05 1.17325e-05 0.00309068 0.000819262
internal_weight=0 53651 1432 249 195 1183 115 1068 1045 41 1004 609 174 586 487 281 206 99 186 254 207 174 74 137 87 53 52219 100 54 395
internal_count=1937436 53651 1432 249 195 1183 115 1068 1045 41 1004 609 174 586 487 281 206 99 186 254 207 174 74 137 87 53 52219 100 54 395
is_linear=0
shrinkage=0.1


Tree=30
num_leaves=31
num_cat=0
split_feature=4 5 17 15 14 15 10 6 9 3 4 9 2 0 3 11 16 7 10 10 1 1 2 3 4 11 11 15 4 1
split_gain=0.00596341 0.00572129 0.00814948 0.0225623 0.00733255 0.00654351 0.00764574 0.025125 0.0230841 0.040531 0.023735 0.0236533 0.0202608 0.0167445 0.0253591 0.0223316 0.031308 0.0274397 0.0166578 0.0127512 0.0123209 0.0296923 0.0427702 0.0425091 0.017379 0.0155325 0.0193488 0.0143811 0.0204773 0.0143713
threshold=8323.5000000000018 340604900.00000006 3.0407777832232954 3830855.2500000005 1810983.3000000003 19761.593000000004 2670.6624500000003 2307.5000000000005 1779.8750000000002 1008.2500000000001 3483.0000000000005 2753.1083500000004 2536.2500000000005 1540.2500000000002 1542.2500000000002 1229.9245000000003 277949.01000000007 1478.0500000000002 4533.7082500000006 5126.4375000000009 1325.2500000000002 1934.5000000000002 1950.5000000000002 1850.2500000000002 4295.5000000000009 1646.9300000000003 1686.0547000000004 200672.71000000005 4014.5000000000005 2207.2500000000005
decision_type=2 2 10 10 2 10 2 2 2 2 2 2 2 2 2 10 10 2 2 2 2 2 2 2 2 10 10 10 2 2
left_child=1 2 -1 4 -4 -3 -7 8 18 -10 13 -12 20 15 -15 -11 17 -17 -8 -20 -13 22 -22 -24 27 -26 -27 28 -23 -28
right_child=-2 5 3 -5 -6 6 7 -9 9 10 11 12 -14 14 -16 16 -18 -19 19 -21 21 24 23 -25 25 26 29 -29 -30 -31
leaf_value=3.9680842766470513e-06 -3.9476092590054397e-05 -8.7859144676597498e-05 6.4474857538626961e-05 0.0027189894070033917 -0.0011601907873469196 -1.4308218227767019e-05 -0.00032006455791385585 2.3292910636263861e-06 0.0041096743903364296 -0.00024027533170347507 0.00014282372065415648 0.0002776492407903578 0.0033678357964023378 0.003065713248388083 -3.1093879300887299e-05 -0.0015856051257742366 0.0011065741040511058 -0.00605865095712943 -0.00417156053285691 -0.00076333987526595599 0.0010789392667961634 0.0012391440872826414 0.0075183188436891554 0.0017310924713092391 -0.0010079369743215176 0.0032421129775921939 -0.00014246482989350144 0.00032910969808547046 0.0046811714433133604 0.00093516965372042894
leaf_weight=1146732 37526 9673 21771 32 49 399376 334 315581 27 177 2679 882 26 27 1281 32 20 24 21 23 308 56 22 30 91 23 317 68 25 203
leaf_count=1146732 37526 9673 21771 32 49 399376 334 315581 27 177 2679 882 26 27 1281 32 20 24 21 23 308 56 22 30 91 23 317 68 25 203
internal_value=0 7.79709e-07 5.12087e-06 6.5616e-05 6.17247e-05 -6.15702e-06 -5.06189e-06 6.39645e-06 0.000198081 0.000243496 0.000226903 0.000338488 0.000594064 -0.000111212 3.2831e-05 -0.000855906 -0.00228968 -0.00350262 -0.000561008 -0.00238999 0.00055845 0.000775131 0.0015268 0.00417953 0.000429534 0.000201143 0.000403769 0.00140135 0.0023015 0.000278227
internal_weight=0 1.89991e+06 1.16858e+06 21852 21820 731326 721653 322277 6696 6318 6291 4730 2051 1561 1308 253 76 56 378 44 2025 1143 360 52 783 634 543 149 81 520
internal_count=1937436 1899910 1168584 21852 21820 731326 721653 322277 6696 6318 6291 4730 2051 1561 1308 253 76 56 378 44 2025 1143 360 52 783 634 543 149 81 520
is_linear=0
shrinkage=0.1


Tree=31
num_leaves=31
num_cat=0
split_feature=13 16 14 4 5 10 2 4 16 13 1 17 11 14 15 12 11 5 8 0 8 1 11 5 1 9 17 17 10 17
split_gain=0.00592764 0.00742174 0.015354 0.0121616 0.0071001 0.00932343 0.0111413 0.00739438 0.0116517 0.00800504 0.0214992 0.00722073 0.011993 0.00644233 0.00722633 0.00699693 0.0107964 0.00653767 0.0111396 0.00648823 0.0064158 0.00634904 0.0129572 0.00624408 0.0117836 0.00716918 0.00674822 0.006139 0.0110502 0.0100274
threshold=3.5000000000000004 6809267.2500000009 9713267.0000000019 5019.5000000000009 12744554000.000002 934.86457000000007 693.35000000000014 6753.5000000000009 64065.998000000007 1.0000000180025095e-35 3660.5000000000005 0.45804782465856292 2846.5843500000005 119187.50000000001 82739.99500000001 17960.754000000004 14976.352000000001 1281793800.0000002 6788.3750000000009 4120.5000000000009 11075.500000000002 16390.000000000004 11934.141000000001 459585070.00000006 782.10000000000014 1974.8417000000002 0.2265503010142921 0.90166055182066918 3441.6431500000003 5.7602599179206573
decision_type=2 10 2 2 2 2 2 2 10 2 2 10 10 2 10 10 10 2 2 2 2 2 10 2 2 2 10 10 2 10
left_child=1 4 3 -3 13 6 -6 8 -7 10 -10 12 -11 14 20 -15 -17 23 19 -19 -1 -2 27 26 -25 -26 -16 -23 -29 -30
right_child=21 2 -4 -5 5 7 -8 -9 9 11 -12 -13 -14 15 17 16 -18 18 -20 -21 -22 22 -24 24 25 -27 -28 28 29 -31
leaf_value=-1.5471872358338803e-05 1.8519427555176794e-06 -0.0039473763688213448 -0.0001837786970045053 -0.00062232151698977261 0.00074541475852046542 -0.0018835145561024549 -0.0021109936235006901 -1.4615300926722932e-05 0.0043416482904285658 0.0030432506028942215 0.00029106015878680504 0.00030506278247731665 0.00051813992359975899 -6.5877571749015001e-05 -0.0015934568154625595 -0.0027864998068914495 -0.00040116909411786448 -2.3613480273828224e-05 0.0014543795463396237 -0.0021711074374787345 0.00046959750636101078 -2.8898523359084199e-05 4.7252804529685454e-05 0.0031079738545009778 -0.00022893325801795494 0.0011049663434192245 0.000278013965749647 -3.946177960692331e-05 -0.0002339163761163267 0.00081756593731963393
leaf_weight=32235 1836672 22 166 22 22 20 36 509 20 27 38 490 62 26658 20 22 138 24 20 34 275 13338 12091 21 65 106 526 7271 6394 92
leaf_count=32235 1836672 22 166 22 22 20 36 509 20 27 38 490 62 26658 20 22 138 24 20 34 275 13338 12091 21 65 106 526 7271 6394 92
internal_value=0 -3.05291e-05 -0.000624003 -0.00228485 -2.84983e-05 0.000209935 -0.00102753 0.00027149 0.000493145 0.000567765 0.00168781 0.000455567 0.00128418 -3.33507e-05 -3.99129e-06 -6.98348e-05 -0.000729152 0.00028993 -0.000580728 -0.00128249 -1.13687e-05 1.00217e-06 -3.88273e-05 0.00038195 0.000872465 0.000597928 0.000209462 -7.72401e-05 -0.000124109 -0.000219002
internal_weight=0 61578 210 44 61368 1224 58 1166 657 637 58 579 89 60144 33326 26818 160 816 78 58 32510 1.87586e+06 39186 738 192 171 546 27095 13757 6486
internal_count=1937436 61578 210 44 61368 1224 58 1166 657 637 58 579 89 60144 33326 26818 160 816 78 58 32510 1875858 39186 738 192 171 546 27095 13757 6486
is_linear=0
shrinkage=0.1


Tree=32
num_leaves=31
num_cat=0
split_feature=1 10 7 1 12 13 13 11 1 0 15 14 15 2 0 12 1 11 17 11 16 10 14 12 15 2 14 3 12 11
split_gain=0.00525383 0.022246 0.0209019 0.0179452 0.018602 0.0428372 0.0231031 0.0430083 0.075784 0.0136469 0.0123295 0.0259819 0.021171 0.0125161 0.0164526 0.0201867 0.0157309 0.0115015 0.0106468 0.0227706 0.0177106 0.013482 0.0133249 0.0106451 0.0106651 0.0104617 0.0194574 0.0104306 0.0270791 0.0134724
threshold=2281.5000000000005 2533.9605000000006 2264.9250000000006 1460.5000000000002 2878.2446000000004 3.5000000000000004 5.5000000000000009 1309.3231000000003 1710.2500000000002 2330.5000000000005 246587.56500000003 1212958.3000000003 618923.20000000007 1965.5000000000002 2020.5000000000002 2955.3312000000001 2121.7500000000005 995.20647500000007 1.1726108936725379 1547.7670500000002 103911.25200000002 2670.6624500000003 341479.1700000001 9950.3835000000017 374330.20500000002 2453.5000000000005 128145.83200000001 1504.2500000000002 2205.5647000000004 1274.6405500000003
decision_type=2 2 2 2 10 2 2 10 2 2 10 2 10 2 2 10 2 10 10 10 10 2 2 10 10 2 2 2 10 10
left_child=1 -1 3 23 9 -6 7 -7 -9 17 13 -12 -13 -10 -15 -16 -17 -5 27 20 21 -20 -22 25 -25 -3 -27 28 29 -19
right_child=-2 2 -4 4 5 6 -8 8 10 -11 11 12 -14 14 15 16 -18 18 19 -21 22 -23 -24 24 -26 26 -28 -29 -30 -31
leaf_value=4.2649726898155629e-07 -6.9776272665459597e-06 1.4609925712272357e-05 2.9201441024974814e-05 -0.0021271060376117628 0.0045212291904525572 -0.00044202433067471445 0.000137361099039977 0.0059307899953310907 0.0033404055873260778 -0.0016894387071117404 -0.0028942091572042999 0.0032440862958677688 -0.0010248845664873011 -0.00055448330301595362 8.5660495182417114e-05 0.0053258775325957693 0.0017052330621351889 -0.0019779232320037078 0.0014836838025422325 0.00029431504875199194 -0.00049094536651716418 0.0050260186586952348 0.0016109874706437561 -0.00013468594164199507 0.0026935388458271823 0.0037870597665286849 0.00018050647069265747 0.00015367842785099435 0.0033863821952965938 0.00076301138942278738
leaf_weight=1166270 693074 6947 62001 21 28 117 550 39 34 38 21 26 21 38 34 21 28 22 21 835 43 22 101 24 30 21 52 6824 36 97
leaf_count=1166270 693074 6947 62001 21 28 117 550 39 34 38 21 26 21 38 34 21 28 22 21 835 43 22 101 24 30 21 52 6824 36 97
internal_value=0 3.88634e-06 5.55576e-05 0.000157112 0.000250649 0.00066748 0.000551328 0.00115207 0.00186394 0.000201157 0.0011527 3.00776e-05 0.00133667 0.0016452 0.00116886 0.00195786 0.00325694 0.000210112 0.000216247 0.000517693 0.00151513 0.00329604 0.000983327 3.78829e-05 0.00143655 2.71239e-05 0.00121801 0.000172103 0.000983275 0.000256284
internal_weight=0 1.24436e+06 78092 16091 9017 957 929 379 262 8060 223 68 47 155 121 83 49 8022 8001 1022 187 43 144 7074 54 7020 73 6979 155 119
